<?xml version="1.0"?>
<MethodSetup Method="BDT::BDTG">
  <GeneralInfo>
    <Info name="TMVA Release" value="4.2.1 [262657]"/>
    <Info name="ROOT Release" value="6.10/09 [395785]"/>
    <Info name="Creator" value="prsaha"/>
    <Info name="Date" value="Mon Jan 31 23:53:45 2022"/>
    <Info name="Host" value="Linux cmsbuild64.cern.ch 2.6.32-696.30.1.el6.x86_64 #1 SMP Tue May 22 06:09:36 CEST 2018 x86_64 x86_64 x86_64 GNU/Linux"/>
    <Info name="Dir" value="/afs/cern.ch/work/p/prsaha/public/plotting_macro/CMSSW_9_4_9/src/Tprime/Training"/>
    <Info name="Training events" value="294661"/>
    <Info name="TrainingTime" value="4.12235447e+02"/>
    <Info name="AnalysisType" value="Classification"/>
  </GeneralInfo>
  <Options>
    <Option name="V" modified="Yes">False</Option>
    <Option name="VerbosityLevel" modified="No">Default</Option>
    <Option name="VarTransform" modified="No">None</Option>
    <Option name="H" modified="Yes">False</Option>
    <Option name="CreateMVAPdfs" modified="No">False</Option>
    <Option name="IgnoreNegWeightsInTraining" modified="No">False</Option>
    <Option name="NTrees" modified="Yes">1000</Option>
    <Option name="MaxDepth" modified="Yes">2</Option>
    <Option name="MinNodeSize" modified="Yes">2.5%</Option>
    <Option name="nCuts" modified="Yes">20</Option>
    <Option name="BoostType" modified="Yes">Grad</Option>
    <Option name="AdaBoostR2Loss" modified="No">quadratic</Option>
    <Option name="UseBaggedBoost" modified="Yes">True</Option>
    <Option name="Shrinkage" modified="Yes">1.000000e-01</Option>
    <Option name="AdaBoostBeta" modified="No">5.000000e-01</Option>
    <Option name="UseRandomisedTrees" modified="No">False</Option>
    <Option name="UseNvars" modified="No">6</Option>
    <Option name="UsePoissonNvars" modified="No">True</Option>
    <Option name="BaggedSampleFraction" modified="Yes">5.000000e-01</Option>
    <Option name="UseYesNoLeaf" modified="No">True</Option>
    <Option name="NegWeightTreatment" modified="No">pray</Option>
    <Option name="Css" modified="No">1.000000e+00</Option>
    <Option name="Cts_sb" modified="No">1.000000e+00</Option>
    <Option name="Ctb_ss" modified="No">1.000000e+00</Option>
    <Option name="Cbb" modified="No">1.000000e+00</Option>
    <Option name="NodePurityLimit" modified="No">5.000000e-01</Option>
    <Option name="SeparationType" modified="No">giniindex</Option>
    <Option name="RegressionLossFunctionBDTG" modified="No">huber</Option>
    <Option name="HuberQuantile" modified="No">7.000000e-01</Option>
    <Option name="DoBoostMonitor" modified="No">False</Option>
    <Option name="UseFisherCuts" modified="No">False</Option>
    <Option name="MinLinCorrForFisher" modified="No">8.000000e-01</Option>
    <Option name="UseExclusiveVars" modified="No">False</Option>
    <Option name="DoPreselection" modified="No">False</Option>
    <Option name="SigToBkgFraction" modified="No">1.000000e+00</Option>
    <Option name="PruneMethod" modified="No">nopruning</Option>
    <Option name="PruneStrength" modified="No">0.000000e+00</Option>
    <Option name="PruningValFraction" modified="No">5.000000e-01</Option>
    <Option name="SkipNormalization" modified="No">False</Option>
    <Option name="nEventsMin" modified="No">0</Option>
    <Option name="UseBaggedGrad" modified="No">False</Option>
    <Option name="GradBaggingFraction" modified="No">5.000000e-01</Option>
    <Option name="UseNTrainEvents" modified="No">0</Option>
    <Option name="NNodesMax" modified="No">0</Option>
  </Options>
  <Variables NVar="31">
    <Variable VarIndex="0" Expression="dipho_leadPt/dipho_mass" Label="dipho_leadPtOvermass" Title="dipho_leadPtOvermass" Unit="" Internal="dipho_leadPtOvermass" Type="F" Min="3.30006301e-01" Max="1.24647408e+01"/>
    <Variable VarIndex="1" Expression="dipho_subleadPt/dipho_mass" Label="dipho_subleadPtOvermass" Title="dipho_subleadPtOvermass" Unit="" Internal="dipho_subleadPtOvermass" Type="F" Min="2.50002325e-01" Max="5.92274284e+00"/>
    <Variable VarIndex="2" Expression="dipho_leadEta" Label="dipho_leadEta" Title="dipho_leadEta" Unit="units" Internal="dipho_leadEta" Type="F" Min="-2.52601457e+00" Max="2.52055597e+00"/>
    <Variable VarIndex="3" Expression="dipho_subleadEta" Label="dipho_subleadEta" Title="dipho_subleadEta" Unit="units" Internal="dipho_subleadEta" Type="F" Min="-2.52820063e+00" Max="2.53378057e+00"/>
    <Variable VarIndex="4" Expression="dipho_leadIDMVA" Label="dipho_leadIDMVA" Title="dipho_leadIDMVA" Unit="units" Internal="dipho_leadIDMVA" Type="F" Min="-6.99937105e-01" Max="9.98337090e-01"/>
    <Variable VarIndex="5" Expression="dipho_subleadIDMVA" Label="dipho_subleadIDMVA" Title="dipho_subleadIDMVA" Unit="units" Internal="dipho_subleadIDMVA" Type="F" Min="-6.99934304e-01" Max="9.97938335e-01"/>
    <Variable VarIndex="6" Expression="dipho_lead_haspixelseed" Label="dipho_lead_haspixelseed" Title="dipho_lead_haspixelseed" Unit="units" Internal="dipho_lead_haspixelseed" Type="F" Min="0.00000000e+00" Max="1.00000000e+00"/>
    <Variable VarIndex="7" Expression="dipho_sublead_haspixelseed" Label="dipho_sublead_haspixelseed" Title="dipho_sublead_haspixelseed" Unit="units" Internal="dipho_sublead_haspixelseed" Type="F" Min="0.00000000e+00" Max="1.00000000e+00"/>
    <Variable VarIndex="8" Expression="n_jets" Label="n_jets" Title="n_jets" Unit="units" Internal="n_jets" Type="F" Min="2.00000000e+00" Max="1.80000000e+01"/>
    <Variable VarIndex="9" Expression="n_bjets" Label="n_bjets" Title="n_bjets" Unit="units" Internal="n_bjets" Type="F" Min="1.00000000e+00" Max="8.00000000e+00"/>
    <Variable VarIndex="10" Expression="n_centraljets" Label="n_centraljets" Title="n_centraljets" Unit="units" Internal="n_centraljets" Type="F" Min="0.00000000e+00" Max="9.00000000e+00"/>
    <Variable VarIndex="11" Expression="lepton_charge" Label="lepton_charge" Title="lepton_charge" Unit="units" Internal="lepton_charge" Type="F" Min="-1.00000000e+00" Max="1.00000000e+00"/>
    <Variable VarIndex="12" Expression="lepton_leadPt" Label="lepton_leadPt" Title="lepton_leadPt" Unit="units" Internal="lepton_leadPt" Type="F" Min="1.00002375e+01" Max="1.02171130e+03"/>
    <Variable VarIndex="13" Expression="lepton_leadEta" Label="lepton_leadEta" Title="lepton_leadEta" Unit="units" Internal="lepton_leadEta" Type="F" Min="-2.43229294e+00" Max="2.42831302e+00"/>
    <Variable VarIndex="14" Expression="fwdjet1_pt" Label="fwdjet1_pt" Title="fwdjet1_pt" Unit="units" Internal="fwdjet1_pt" Type="F" Min="2.50000801e+01" Max="1.33562842e+03"/>
    <Variable VarIndex="15" Expression="fwdjet1_discr" Label="fwdjet1_discr" Title="fwdjet1_discr" Unit="units" Internal="fwdjet1_discr" Type="F" Min="-2.00000000e+00" Max="9.99999940e-01"/>
    <Variable VarIndex="16" Expression="dr_tHchainfwdjet" Label="dr_tHchainfwdjet" Title="dRtHchainfwdjet" Unit="units" Internal="dr_tHchainfwdjet" Type="F" Min="1.74219608e-02" Max="1.77720432e+01"/>
    <Variable VarIndex="17" Expression="dr_leptonbjet" Label="dr_leptonbjet" Title="dRleptonbjet" Unit="units" Internal="dr_leptonbjet" Type="F" Min="4.00248110e-01" Max="6.01949453e+00"/>
    <Variable VarIndex="18" Expression="dr_leptonfwdjet" Label="dr_leptonfwdjet" Title="dRleptonfwdjet" Unit="units" Internal="dr_leptonfwdjet" Type="F" Min="4.01109129e-01" Max="7.85778999e+00"/>
    <Variable VarIndex="19" Expression="dr_bjetfwdjet" Label="dr_bjetfwdjet" Title="dr_bjetfwdjet" Unit="units" Internal="dr_bjetfwdjet" Type="F" Min="3.29925567e-01" Max="8.69401360e+00"/>
    <Variable VarIndex="20" Expression="dr_leadphofwdjet" Label="dr_leadphofwdjet" Title="dRleadphofwdjet" Unit="units" Internal="dr_leadphofwdjet" Type="F" Min="4.08807278e-01" Max="7.92473936e+00"/>
    <Variable VarIndex="21" Expression="dr_subleadphofwdjet" Label="dr_subleadphofwdjet" Title="dRsubleadphofwdjet" Unit="units" Internal="dr_subleadphofwdjet" Type="F" Min="3.98789942e-01" Max="8.06108189e+00"/>
    <Variable VarIndex="22" Expression="bjet1_pt" Label="bjet1_pt" Title="bjet1_pt" Unit="units" Internal="bjet1_pt" Type="F" Min="2.50000534e+01" Max="1.55030054e+03"/>
    <Variable VarIndex="23" Expression="bjet1_eta" Label="bjet1_eta" Title="bjet1_eta" Unit="units" Internal="bjet1_eta" Type="F" Min="-3.15815735e+00" Max="3.17535377e+00"/>
    <Variable VarIndex="24" Expression="bjet1_discr" Label="bjet1_discr" Title="bjet1_discr" Unit="units" Internal="bjet1_discr" Type="F" Min="1.52205050e-01" Max="9.99999881e-01"/>
    <Variable VarIndex="25" Expression="jet1_pt" Label="jet1_pt" Title="jet1_pt" Unit="units" Internal="jet1_pt" Type="F" Min="2.51958866e+01" Max="2.06107715e+03"/>
    <Variable VarIndex="26" Expression="jet2_pt" Label="jet2_pt" Title="jet2_pt" Unit="units" Internal="jet2_pt" Type="F" Min="2.50000534e+01" Max="1.05902014e+03"/>
    <Variable VarIndex="27" Expression="jet1_eta" Label="jet1_eta" Title="jet1_eta" Unit="units" Internal="jet1_eta" Type="F" Min="-4.99910450e+00" Max="4.99953604e+00"/>
    <Variable VarIndex="28" Expression="jet2_eta" Label="jet2_eta" Title="jet2_eta" Unit="units" Internal="jet2_eta" Type="F" Min="-4.99994612e+00" Max="4.99999046e+00"/>
    <Variable VarIndex="29" Expression="(solvedMET_pt+dipho_pt+lepton_leadPt+bjet1_pt)/(HT+recoMET_pt+lepton_leadPt)" Label="ScalarTPtOverAllPt" Title="ScalarTPtOverAllPt" Unit="" Internal="ScalarTPtOverAllPt" Type="F" Min="8.56881365e-02" Max="3.35243201e+00"/>
    <Variable VarIndex="30" Expression="recoMET_pt" Label="recoMET_pt" Title="recoMET_pt" Unit="units" Internal="recoMET_pt" Type="F" Min="2.48647198e-01" Max="1.12498010e+03"/>
  </Variables>
  <Spectators NSpec="0"/>
  <Classes NClass="2">
    <Class Name="Signal" Index="0"/>
    <Class Name="Background" Index="1"/>
  </Classes>
  <Transformations NTransformations="0"/>
  <MVAPdfs/>
  <Weights NTrees="1000" AnalysisType="1">
    <BinaryTree type="DecisionTree" boostWeight="1.0000000000000000e+00" itree="0">
      <Node pos="s" depth="0" NCoef="0" IVar="0" Cut="1.4542814493179321e+00" cType="1" res="1.1193169048056006e-03" rms="4.9999874830245972e-01" purity="5.0111931562423706e-01" nType="0">
        <Node pos="l" depth="1" NCoef="0" IVar="1" Cut="8.1979519128799438e-01" cType="1" res="-4.2730730772018433e-01" rms="2.5963142514228821e-01" purity="7.2692714631557465e-02" nType="0">
          <Node pos="l" depth="2" NCoef="0" IVar="-1" Cut="0.0000000000000000e+00" cType="1" res="-1.5752026811242104e-02" rms="2.1203136444091797e-01" purity="4.7183595597743988e-02" nType="-99"/>
          <Node pos="r" depth="2" NCoef="0" IVar="-1" Cut="0.0000000000000000e+00" cType="1" res="-4.3560299091041088e-03" rms="4.9096930027008057e-01" purity="4.0540000796318054e-01" nType="-99"/>
        </Node>
        <Node pos="r" depth="1" NCoef="0" IVar="0" Cut="1.9628620147705078e+00" cType="1" res="3.7812381982803345e-01" rms="3.2714274525642395e-01" purity="8.7812376022338867e-01" nType="0">
          <Node pos="l" depth="2" NCoef="0" IVar="-1" Cut="0.0000000000000000e+00" cType="1" res="5.2310125902295113e-03" rms="4.9095717072486877e-01" purity="5.9466278553009033e-01" nType="-99"/>
          <Node pos="r" depth="2" NCoef="0" IVar="-1" Cut="0.0000000000000000e+00" cType="1" res="4.1553080081939697e-02" rms="2.3743693530559540e-01" purity="9.4002687931060791e-01" nType="-99"/>
        </Node>
      </Node>
    </BinaryTree>
    <BinaryTree type="DecisionTree" boostWeight="1.0000000000000000e+00" itree="1">
      <Node pos="s" depth="0" NCoef="0" IVar="0" Cut="1.8446242809295654e+00" cType="1" res="-6.8096653558313847e-03" rms="4.8891904950141907e-01" purity="4.9907445907592773e-01" nType="0">
        <Node pos="l" depth="1" NCoef="0" IVar="1" Cut="8.5375469923019409e-01" cType="1" res="-3.6368939280509949e-01" rms="3.3461362123489380e-01" purity="1.3020850718021393e-01" nType="0">
          <Node pos="l" depth="2" NCoef="0" IVar="-1" Cut="0.0000000000000000e+00" cType="1" res="-1.4857224188745022e-02" rms="2.5570258498191833e-01" purity="7.0891737937927246e-02" nType="-99"/>
          <Node pos="r" depth="2" NCoef="0" IVar="-1" Cut="0.0000000000000000e+00" cType="1" res="5.3027872927486897e-03" rms="4.9053642153739929e-01" purity="5.9297472238540649e-01" nType="-99"/>
        </Node>
        <Node pos="r" depth="1" NCoef="0" IVar="29" Cut="1.0131876468658447e+00" cType="1" res="4.0851444005966187e-01" rms="2.5731897354125977e-01" purity="9.2834764719009399e-01" nType="0">
          <Node pos="l" depth="2" NCoef="0" IVar="-1" Cut="0.0000000000000000e+00" cType="1" res="1.7867630347609520e-02" rms="4.0722927451133728e-01" purity="7.8900510072708130e-01" nType="-99"/>
          <Node pos="r" depth="2" NCoef="0" IVar="-1" Cut="0.0000000000000000e+00" cType="1" res="4.2645670473575592e-02" rms="2.0623260736465454e-01" purity="9.5528131723403931e-01" nType="-99"/>
        </Node>
      </Node>
    </BinaryTree>
    <BinaryTree type="DecisionTree" boostWeight="1.0000000000000000e+00" itree="2">
      <Node pos="s" depth="0" NCoef="0" IVar="0" Cut="1.3398820161819458e+00" cType="1" res="-9.9133653566241264e-03" rms="4.7820249199867249e-01" purity="5.0154614448547363e-01" nType="0">
        <Node pos="l" depth="1" NCoef="0" IVar="1" Cut="7.1454292535781860e-01" cType="1" res="-4.3137198686599731e-01" rms="2.2514356672763824e-01" purity="5.4043903946876526e-02" nType="0">
          <Node pos="l" depth="2" NCoef="0" IVar="-1" Cut="0.0000000000000000e+00" cType="1" res="-1.5818309038877487e-02" rms="1.7828547954559326e-01" purity="3.2865874469280243e-02" nType="-99"/>
          <Node pos="r" depth="2" NCoef="0" IVar="-1" Cut="0.0000000000000000e+00" cType="1" res="-9.8914662376046181e-03" rms="4.3910735845565796e-01" purity="2.6403760910034180e-01" nType="-99"/>
        </Node>
        <Node pos="r" depth="1" NCoef="0" IVar="0" Cut="1.7966531515121460e+00" cType="1" res="3.2196852564811707e-01" rms="3.4469696879386902e-01" purity="8.5393637418746948e-01" nType="0">
          <Node pos="l" depth="2" NCoef="0" IVar="-1" Cut="0.0000000000000000e+00" cType="1" res="-5.7793775340542197e-04" rms="4.9676921963691711e-01" purity="4.8558500409126282e-01" nType="-99"/>
          <Node pos="r" depth="2" NCoef="0" IVar="-1" Cut="0.0000000000000000e+00" cType="1" res="3.5097744315862656e-02" rms="2.6662805676460266e-01" purity="9.2162662744522095e-01" nType="-99"/>
        </Node>
      </Node>
    </BinaryTree>
    <BinaryTree type="DecisionTree" boostWeight="1.0000000000000000e+00" itree="3">
      <Node pos="s" depth="0" NCoef="0" IVar="0" Cut="1.4856952428817749e+00" cType="1" res="-1.7458887770771980e-02" rms="4.6854454278945923e-01" purity="4.9851998686790466e-01" nType="0">
        <Node pos="l" depth="1" NCoef="0" IVar="1" Cut="7.6752322912216187e-01" cType="1" res="-4.0323558449745178e-01" rms="2.6197925209999084e-01" purity="7.5499258935451508e-02" nType="0">
          <Node pos="l" depth="2" NCoef="0" IVar="-1" Cut="0.0000000000000000e+00" cType="1" res="-1.5162630006670952e-02" rms="2.0320491492748260e-01" purity="4.3317839503288269e-02" nType="-99"/>
          <Node pos="r" depth="2" NCoef="0" IVar="-1" Cut="0.0000000000000000e+00" cType="1" res="-4.7561125829815865e-03" rms="4.8614075779914856e-01" purity="3.8889408111572266e-01" nType="-99"/>
        </Node>
        <Node pos="r" depth="1" NCoef="0" IVar="0" Cut="2.0085098743438721e+00" cType="1" res="3.2984298467636108e-01" rms="3.1746724247932434e-01" purity="8.7935149669647217e-01" nType="0">
          <Node pos="l" depth="2" NCoef="0" IVar="-1" Cut="0.0000000000000000e+00" cType="1" res="5.7112597860395908e-03" rms="4.8071888089179993e-01" purity="6.1540317535400391e-01" nType="-99"/>
          <Node pos="r" depth="2" NCoef="0" IVar="-1" Cut="0.0000000000000000e+00" cType="1" res="3.6558922380208969e-02" rms="2.3427158594131470e-01" purity="9.4130825996398926e-01" nType="-99"/>
        </Node>
      </Node>
    </BinaryTree>
    <BinaryTree type="DecisionTree" boostWeight="1.0000000000000000e+00" itree="4">
      <Node pos="s" depth="0" NCoef="0" IVar="0" Cut="1.4856952428817749e+00" cType="1" res="-2.2690098732709885e-02" rms="4.5924434065818787e-01" purity="4.9792611598968506e-01" nType="0">
        <Node pos="l" depth="1" NCoef="0" IVar="1" Cut="8.3606857061386108e-01" cType="1" res="-3.9836511015892029e-01" rms="2.5792557001113892e-01" purity="7.3261588811874390e-02" nType="0">
          <Node pos="l" depth="2" NCoef="0" IVar="-1" Cut="0.0000000000000000e+00" cType="1" res="-1.4947857707738876e-02" rms="2.1279071271419525e-01" purity="4.7786638140678406e-02" nType="-99"/>
          <Node pos="r" depth="2" NCoef="0" IVar="-1" Cut="0.0000000000000000e+00" cType="1" res="-3.7248772569000721e-03" rms="4.9209487438201904e-01" purity="4.1631847620010376e-01" nType="-99"/>
        </Node>
        <Node pos="r" depth="1" NCoef="0" IVar="0" Cut="2.0086095333099365e+00" cType="1" res="3.1385815143585205e-01" rms="3.1709679961204529e-01" purity="8.7836158275604248e-01" nType="0">
          <Node pos="l" depth="2" NCoef="0" IVar="-1" Cut="0.0000000000000000e+00" cType="1" res="6.2797381542623043e-03" rms="4.7908318042755127e-01" purity="6.2494993209838867e-01" nType="-99"/>
          <Node pos="r" depth="2" NCoef="0" IVar="-1" Cut="0.0000000000000000e+00" cType="1" res="3.5117488354444504e-02" rms="2.3882555961608887e-01" purity="9.3886339664459229e-01" nType="-99"/>
        </Node>
      </Node>
    </BinaryTree>
    <BinaryTree type="DecisionTree" boostWeight="1.0000000000000000e+00" itree="5">
      <Node pos="s" depth="0" NCoef="0" IVar="0" Cut="1.4542497396469116e+00" cType="1" res="-2.4991972371935844e-02" rms="4.5017525553703308e-01" purity="5.0022071599960327e-01" nType="0">
        <Node pos="l" depth="1" NCoef="0" IVar="1" Cut="8.1626951694488525e-01" cType="1" res="-3.9375025033950806e-01" rms="2.5299790501594543e-01" purity="7.0400394499301910e-02" nType="0">
          <Node pos="l" depth="2" NCoef="0" IVar="-1" Cut="0.0000000000000000e+00" cType="1" res="-1.4493448659777641e-02" rms="2.0808295905590057e-01" purity="4.5503251254558563e-02" nType="-99"/>
          <Node pos="r" depth="2" NCoef="0" IVar="-1" Cut="0.0000000000000000e+00" cType="1" res="-3.3933501690626144e-03" rms="4.9348595738410950e-01" purity="4.2425453662872314e-01" nType="-99"/>
        </Node>
        <Node pos="r" depth="1" NCoef="0" IVar="0" Cut="1.9628568887710571e+00" cType="1" res="2.9379180073738098e-01" rms="3.2146596908569336e-01" purity="8.7179142236709595e-01" nType="0">
          <Node pos="l" depth="2" NCoef="0" IVar="-1" Cut="0.0000000000000000e+00" cType="1" res="4.1880360804498196e-03" rms="4.8613157868385315e-01" purity="5.9017086029052734e-01" nType="-99"/>
          <Node pos="r" depth="2" NCoef="0" IVar="-1" Cut="0.0000000000000000e+00" cType="1" res="3.2478496432304382e-02" rms="2.4764503538608551e-01" purity="9.3365818262100220e-01" nType="-99"/>
        </Node>
      </Node>
    </BinaryTree>
    <BinaryTree type="DecisionTree" boostWeight="1.0000000000000000e+00" itree="6">
      <Node pos="s" depth="0" NCoef="0" IVar="0" Cut="1.6672852039337158e+00" cType="1" res="-2.6152150705456734e-02" rms="4.4203883409500122e-01" purity="5.0341969728469849e-01" nType="0">
        <Node pos="l" depth="1" NCoef="0" IVar="1" Cut="9.1253840923309326e-01" cType="1" res="-3.5730478167533875e-01" rms="2.9793241620063782e-01" purity="1.0398835688829422e-01" nType="0">
          <Node pos="l" depth="2" NCoef="0" IVar="-1" Cut="0.0000000000000000e+00" cType="1" res="-1.4045241288840771e-02" rms="2.4855734407901764e-01" purity="6.8058051168918610e-02" nType="-99"/>
          <Node pos="r" depth="2" NCoef="0" IVar="-1" Cut="0.0000000000000000e+00" cType="1" res="4.4987192377448082e-03" rms="4.9133232235908508e-01" purity="5.7596707344055176e-01" nType="-99"/>
        </Node>
        <Node pos="r" depth="1" NCoef="0" IVar="29" Cut="9.0781748294830322e-01" cType="1" res="3.0657759308815002e-01" rms="2.8574004769325256e-01" purity="9.0475332736968994e-01" nType="0">
          <Node pos="l" depth="2" NCoef="0" IVar="-1" Cut="0.0000000000000000e+00" cType="1" res="7.0672342553734779e-03" rms="4.5033311843872070e-01" purity="6.9081830978393555e-01" nType="-99"/>
          <Node pos="r" depth="2" NCoef="0" IVar="-1" Cut="0.0000000000000000e+00" cType="1" res="3.2164283096790314e-02" rms="2.4810187518596649e-01" purity="9.3123018741607666e-01" nType="-99"/>
        </Node>
      </Node>
    </BinaryTree>
    <BinaryTree type="DecisionTree" boostWeight="1.0000000000000000e+00" itree="7">
      <Node pos="s" depth="0" NCoef="0" IVar="0" Cut="1.4542198181152344e+00" cType="1" res="-3.4031998366117477e-02" rms="4.3335717916488647e-01" purity="4.9827048182487488e-01" nType="0">
        <Node pos="l" depth="1" NCoef="0" IVar="1" Cut="7.6302939653396606e-01" cType="1" res="-3.7966009974479675e-01" rms="2.5334608554840088e-01" purity="7.1313515305519104e-02" nType="0">
          <Node pos="l" depth="2" NCoef="0" IVar="-1" Cut="0.0000000000000000e+00" cType="1" res="-1.4249373227357864e-02" rms="1.9936403632164001e-01" purity="4.1552539914846420e-02" nType="-99"/>
          <Node pos="r" depth="2" NCoef="0" IVar="-1" Cut="0.0000000000000000e+00" cType="1" res="-5.1095094531774521e-03" rms="4.8000475764274597e-01" purity="3.7122642993927002e-01" nType="-99"/>
        </Node>
        <Node pos="r" depth="1" NCoef="0" IVar="0" Cut="1.9628568887710571e+00" cType="1" res="2.7086895704269409e-01" rms="3.1384649872779846e-01" purity="8.7491691112518311e-01" nType="0">
          <Node pos="l" depth="2" NCoef="0" IVar="-1" Cut="0.0000000000000000e+00" cType="1" res="3.6342435050755739e-03" rms="4.8409968614578247e-01" purity="5.8774995803833008e-01" nType="-99"/>
          <Node pos="r" depth="2" NCoef="0" IVar="-1" Cut="0.0000000000000000e+00" cType="1" res="3.1184624880552292e-02" rms="2.3967368900775909e-01" purity="9.3766260147094727e-01" nType="-99"/>
        </Node>
      </Node>
    </BinaryTree>
    <BinaryTree type="DecisionTree" boostWeight="1.0000000000000000e+00" itree="8">
      <Node pos="s" depth="0" NCoef="0" IVar="0" Cut="1.4856952428817749e+00" cType="1" res="-3.7178099155426025e-02" rms="4.2557936906814575e-01" purity="4.9835222959518433e-01" nType="0">
        <Node pos="l" depth="1" NCoef="0" IVar="1" Cut="8.9467465877532959e-01" cType="1" res="-3.7036097049713135e-01" rms="2.5800803303718567e-01" purity="7.4595451354980469e-02" nType="0">
          <Node pos="l" depth="2" NCoef="0" IVar="-1" Cut="0.0000000000000000e+00" cType="1" res="-1.3779803179204464e-02" rms="2.2260414063930511e-01" purity="5.2897598594427109e-02" nType="-99"/>
          <Node pos="r" depth="2" NCoef="0" IVar="-1" Cut="0.0000000000000000e+00" cType="1" res="-1.5539164887741208e-03" rms="4.9732053279876709e-01" purity="4.5987662672996521e-01" nType="-99"/>
        </Node>
        <Node pos="r" depth="1" NCoef="0" IVar="0" Cut="2.0085098743438721e+00" cType="1" res="2.6477259397506714e-01" rms="3.0520600080490112e-01" purity="8.8238650560379028e-01" nType="0">
          <Node pos="l" depth="2" NCoef="0" IVar="-1" Cut="0.0000000000000000e+00" cType="1" res="5.0505991093814373e-03" rms="4.7608482837677002e-01" purity="6.2072336673736572e-01" nType="-99"/>
          <Node pos="r" depth="2" NCoef="0" IVar="-1" Cut="0.0000000000000000e+00" cType="1" res="3.1456381082534790e-02" rms="2.2996957600116730e-01" purity="9.4329118728637695e-01" nType="-99"/>
        </Node>
      </Node>
    </BinaryTree>
    <BinaryTree type="DecisionTree" boostWeight="1.0000000000000000e+00" itree="9">
      <Node pos="s" depth="0" NCoef="0" IVar="0" Cut="1.4857251644134521e+00" cType="1" res="-3.9428666234016418e-02" rms="4.1878053545951843e-01" purity="4.9997481703758240e-01" nType="0">
        <Node pos="l" depth="1" NCoef="0" IVar="1" Cut="7.7568292617797852e-01" cType="1" res="-3.6239248514175415e-01" rms="2.5964093208312988e-01" purity="7.6014429330825806e-02" nType="0">
          <Node pos="l" depth="2" NCoef="0" IVar="-1" Cut="0.0000000000000000e+00" cType="1" res="-1.4079633168876171e-02" rms="2.0562712848186493e-01" purity="4.4467914849519730e-02" nType="-99"/>
          <Node pos="r" depth="2" NCoef="0" IVar="-1" Cut="0.0000000000000000e+00" cType="1" res="-3.9103971794247627e-03" rms="4.8547977209091187e-01" purity="3.9496698975563049e-01" nType="-99"/>
        </Node>
        <Node pos="r" depth="1" NCoef="0" IVar="29" Cut="8.3432394266128540e-01" cType="1" res="2.4904456734657288e-01" rms="3.0891382694244385e-01" purity="8.7865877151489258e-01" nType="0">
          <Node pos="l" depth="2" NCoef="0" IVar="-1" Cut="0.0000000000000000e+00" cType="1" res="-9.9108787253499031e-04" rms="4.7549921274185181e-01" purity="5.5929845571517944e-01" nType="-99"/>
          <Node pos="r" depth="2" NCoef="0" IVar="-1" Cut="0.0000000000000000e+00" cType="1" res="2.6845946907997131e-02" rms="2.7248504757881165e-01" purity="9.1087359189987183e-01" nType="-99"/>
        </Node>
      </Node>
    </BinaryTree>
    <BinaryTree type="DecisionTree" boostWeight="1.0000000000000000e+00" itree="10">
      <Node pos="s" depth="0" NCoef="0" IVar="0" Cut="1.4856952428817749e+00" cType="1" res="-4.0600419044494629e-02" rms="4.1168239712715149e-01" purity="5.0192767381668091e-01" nType="0">
        <Node pos="l" depth="1" NCoef="0" IVar="1" Cut="7.7746123075485229e-01" cType="1" res="-3.5627663135528564e-01" rms="2.5868472456932068e-01" purity="7.5544074177742004e-02" nType="0">
          <Node pos="l" depth="2" NCoef="0" IVar="-1" Cut="0.0000000000000000e+00" cType="1" res="-1.3625733554363251e-02" rms="2.0893402397632599e-01" purity="4.5988682657480240e-02" nType="-99"/>
          <Node pos="r" depth="2" NCoef="0" IVar="-1" Cut="0.0000000000000000e+00" cType="1" res="-4.5071607455611229e-03" rms="4.8206824064254761e-01" purity="3.8157185912132263e-01" nType="-99"/>
        </Node>
        <Node pos="r" depth="1" NCoef="0" IVar="0" Cut="2.0085439682006836e+00" cType="1" res="2.3929354548454285e-01" rms="3.0614489316940308e-01" purity="8.7998020648956299e-01" nType="0">
          <Node pos="l" depth="2" NCoef="0" IVar="-1" Cut="0.0000000000000000e+00" cType="1" res="4.0970640257000923e-03" rms="4.7548934817314148e-01" purity="6.1910396814346313e-01" nType="-99"/>
          <Node pos="r" depth="2" NCoef="0" IVar="-1" Cut="0.0000000000000000e+00" cType="1" res="2.9406035318970680e-02" rms="2.3276001214981079e-01" purity="9.4166272878646851e-01" nType="-99"/>
        </Node>
      </Node>
    </BinaryTree>
    <BinaryTree type="DecisionTree" boostWeight="1.0000000000000000e+00" itree="11">
      <Node pos="s" depth="0" NCoef="0" IVar="0" Cut="1.4857251644134521e+00" cType="1" res="-4.6381350606679916e-02" rms="4.0514165163040161e-01" purity="4.9843117594718933e-01" nType="0">
        <Node pos="l" depth="1" NCoef="0" IVar="1" Cut="7.7746123075485229e-01" cType="1" res="-3.5005521774291992e-01" rms="2.5838634371757507e-01" purity="7.5726032257080078e-02" nType="0">
          <Node pos="l" depth="2" NCoef="0" IVar="-1" Cut="0.0000000000000000e+00" cType="1" res="-1.3329910114407539e-02" rms="2.0842911303043365e-01" purity="4.5764666050672531e-02" nType="-99"/>
          <Node pos="r" depth="2" NCoef="0" IVar="-1" Cut="0.0000000000000000e+00" cType="1" res="-4.4399891048669815e-03" rms="4.8013010621070862e-01" purity="3.7604239583015442e-01" nType="-99"/>
        </Node>
        <Node pos="r" depth="1" NCoef="0" IVar="29" Cut="1.1037954092025757e+00" cType="1" res="2.2605361044406891e-01" rms="3.0748453736305237e-01" purity="8.7765264511108398e-01" nType="0">
          <Node pos="l" depth="2" NCoef="0" IVar="-1" Cut="0.0000000000000000e+00" cType="1" res="6.3381865620613098e-03" rms="4.2676588892936707e-01" purity="7.1447980403900146e-01" nType="-99"/>
          <Node pos="r" depth="2" NCoef="0" IVar="-1" Cut="0.0000000000000000e+00" cType="1" res="2.9597070068120956e-02" rms="2.2973869740962982e-01" purity="9.3887162208557129e-01" nType="-99"/>
        </Node>
      </Node>
    </BinaryTree>
    <BinaryTree type="DecisionTree" boostWeight="1.0000000000000000e+00" itree="12">
      <Node pos="s" depth="0" NCoef="0" IVar="0" Cut="1.3219064474105835e+00" cType="1" res="-4.7550030052661896e-02" rms="3.9887312054634094e-01" purity="5.0104552507400513e-01" nType="0">
        <Node pos="l" depth="1" NCoef="0" IVar="1" Cut="8.0446922779083252e-01" cType="1" res="-3.6426243185997009e-01" rms="2.2065879404544830e-01" purity="5.3328424692153931e-02" nType="0">
          <Node pos="l" depth="2" NCoef="0" IVar="-1" Cut="0.0000000000000000e+00" cType="1" res="-1.3673437759280205e-02" rms="1.8678447604179382e-01" purity="3.6264512687921524e-02" nType="-99"/>
          <Node pos="r" depth="2" NCoef="0" IVar="-1" Cut="0.0000000000000000e+00" cType="1" res="-6.2331249937415123e-03" rms="4.6628656983375549e-01" purity="3.2440447807312012e-01" nType="-99"/>
        </Node>
        <Node pos="r" depth="1" NCoef="0" IVar="0" Cut="1.7706226110458374e+00" cType="1" res="1.9385756552219391e-01" rms="3.2942792773246765e-01" purity="8.4230881929397583e-01" nType="0">
          <Node pos="l" depth="2" NCoef="0" IVar="-1" Cut="0.0000000000000000e+00" cType="1" res="-2.8699410613626242e-03" rms="4.8267707228660583e-01" purity="4.4151791930198669e-01" nType="-99"/>
          <Node pos="r" depth="2" NCoef="0" IVar="-1" Cut="0.0000000000000000e+00" cType="1" res="2.4775056168437004e-02" rms="2.6531344652175903e-01" purity="9.1827148199081421e-01" nType="-99"/>
        </Node>
      </Node>
    </BinaryTree>
    <BinaryTree type="DecisionTree" boostWeight="1.0000000000000000e+00" itree="13">
      <Node pos="s" depth="0" NCoef="0" IVar="0" Cut="1.6479793787002563e+00" cType="1" res="-5.1782693713903427e-02" rms="3.9305758476257324e-01" purity="4.9809440970420837e-01" nType="0">
        <Node pos="l" depth="1" NCoef="0" IVar="1" Cut="7.8066599369049072e-01" cType="1" res="-3.2222923636436462e-01" rms="2.8321850299835205e-01" purity="9.8168909549713135e-02" nType="0">
          <Node pos="l" depth="2" NCoef="0" IVar="-1" Cut="0.0000000000000000e+00" cType="1" res="-1.3007350265979767e-02" rms="2.1950170397758484e-01" purity="5.2857346832752228e-02" nType="-99"/>
          <Node pos="r" depth="2" NCoef="0" IVar="-1" Cut="0.0000000000000000e+00" cType="1" res="-9.7607076168060303e-04" rms="4.8872065544128418e-01" purity="4.6816590428352356e-01" nType="-99"/>
        </Node>
        <Node pos="r" depth="1" NCoef="0" IVar="29" Cut="8.5727012157440186e-01" cType="1" res="2.2028909623622894e-01" rms="2.8568908572196960e-01" purity="9.0042322874069214e-01" nType="0">
          <Node pos="l" depth="2" NCoef="0" IVar="-1" Cut="0.0000000000000000e+00" cType="1" res="3.1617007334716618e-04" rms="4.6797221899032593e-01" purity="6.2301307916641235e-01" nType="-99"/>
          <Node pos="r" depth="2" NCoef="0" IVar="-1" Cut="0.0000000000000000e+00" cType="1" res="2.5847854092717171e-02" rms="2.5194945931434631e-01" purity="9.2719870805740356e-01" nType="-99"/>
        </Node>
      </Node>
    </BinaryTree>
    <BinaryTree type="DecisionTree" boostWeight="1.0000000000000000e+00" itree="14">
      <Node pos="s" depth="0" NCoef="0" IVar="0" Cut="1.4856952428817749e+00" cType="1" res="-5.4344039410352707e-02" rms="3.8584929704666138e-01" purity="4.9647539854049683e-01" nType="0">
        <Node pos="l" depth="1" NCoef="0" IVar="0" Cut="1.1554964780807495e+00" cType="1" res="-3.3656629920005798e-01" rms="2.4969953298568726e-01" purity="7.1080304682254791e-02" nType="0">
          <Node pos="l" depth="2" NCoef="0" IVar="-1" Cut="0.0000000000000000e+00" cType="1" res="-1.3141019269824028e-02" rms="1.8228153884410858e-01" purity="3.5267669707536697e-02" nType="-99"/>
          <Node pos="r" depth="2" NCoef="0" IVar="-1" Cut="0.0000000000000000e+00" cType="1" res="-6.7928577773272991e-03" rms="4.3134251236915588e-01" purity="2.6682651042938232e-01" nType="-99"/>
        </Node>
        <Node pos="r" depth="1" NCoef="0" IVar="10" Cut="2.1428570747375488e+00" cType="1" res="2.0220087468624115e-01" rms="2.9886251688003540e-01" purity="8.8316696882247925e-01" nType="0">
          <Node pos="l" depth="2" NCoef="0" IVar="-1" Cut="0.0000000000000000e+00" cType="1" res="2.4653973057866096e-02" rms="2.5374141335487366e-01" purity="9.1999149322509766e-01" nType="-99"/>
          <Node pos="r" depth="2" NCoef="0" IVar="-1" Cut="0.0000000000000000e+00" cType="1" res="3.2477916684001684e-03" rms="4.2434552311897278e-01" purity="7.0626455545425415e-01" nType="-99"/>
        </Node>
      </Node>
    </BinaryTree>
    <BinaryTree type="DecisionTree" boostWeight="1.0000000000000000e+00" itree="15">
      <Node pos="s" depth="0" NCoef="0" IVar="0" Cut="1.4542500972747803e+00" cType="1" res="-5.4404117166996002e-02" rms="3.8180804252624512e-01" purity="4.9977079033851624e-01" nType="0">
        <Node pos="l" depth="1" NCoef="0" IVar="1" Cut="7.6281327009201050e-01" cType="1" res="-3.3016198873519897e-01" rms="2.4985665082931519e-01" purity="7.1121595799922943e-02" nType="0">
          <Node pos="l" depth="2" NCoef="0" IVar="-1" Cut="0.0000000000000000e+00" cType="1" res="-1.2907824479043484e-02" rms="2.0017221570014954e-01" purity="4.2063720524311066e-02" nType="-99"/>
          <Node pos="r" depth="2" NCoef="0" IVar="-1" Cut="0.0000000000000000e+00" cType="1" res="-4.7050169669091702e-03" rms="4.7276896238327026e-01" purity="3.5403645038604736e-01" nType="-99"/>
        </Node>
        <Node pos="r" depth="1" NCoef="0" IVar="0" Cut="1.9628223180770874e+00" cType="1" res="1.8452808260917664e-01" rms="3.0825263261795044e-01" purity="8.7117666006088257e-01" nType="0">
          <Node pos="l" depth="2" NCoef="0" IVar="-1" Cut="0.0000000000000000e+00" cType="1" res="1.0798102011904120e-03" rms="4.7654208540916443e-01" purity="5.8183985948562622e-01" nType="-99"/>
          <Node pos="r" depth="2" NCoef="0" IVar="-1" Cut="0.0000000000000000e+00" cType="1" res="2.5035178288817406e-02" rms="2.4129752814769745e-01" purity="9.3549311161041260e-01" nType="-99"/>
        </Node>
      </Node>
    </BinaryTree>
    <BinaryTree type="DecisionTree" boostWeight="1.0000000000000000e+00" itree="16">
      <Node pos="s" depth="0" NCoef="0" IVar="0" Cut="1.4542198181152344e+00" cType="1" res="-5.5043924599885941e-02" rms="3.7677192687988281e-01" purity="5.0091135501861572e-01" nType="0">
        <Node pos="l" depth="1" NCoef="0" IVar="1" Cut="7.0301461219787598e-01" cType="1" res="-3.2441496849060059e-01" rms="2.4934738874435425e-01" purity="7.0813938975334167e-02" nType="0">
          <Node pos="l" depth="2" NCoef="0" IVar="-1" Cut="0.0000000000000000e+00" cType="1" res="-1.2691566720604897e-02" rms="1.9366039335727692e-01" purity="3.9241552352905273e-02" nType="-99"/>
          <Node pos="r" depth="2" NCoef="0" IVar="-1" Cut="0.0000000000000000e+00" cType="1" res="-5.6683663278818130e-03" rms="4.5419764518737793e-01" purity="3.0949503183364868e-01" nType="-99"/>
        </Node>
        <Node pos="r" depth="1" NCoef="0" IVar="29" Cut="8.4078705310821533e-01" cType="1" res="1.7846353352069855e-01" rms="3.0609151721000671e-01" purity="8.7374621629714966e-01" nType="0">
          <Node pos="l" depth="2" NCoef="0" IVar="-1" Cut="0.0000000000000000e+00" cType="1" res="-2.5402358733117580e-03" rms="4.7092673182487488e-01" purity="5.6195849180221558e-01" nType="-99"/>
          <Node pos="r" depth="2" NCoef="0" IVar="-1" Cut="0.0000000000000000e+00" cType="1" res="2.1624414250254631e-02" rms="2.7162832021713257e-01" purity="9.0739434957504272e-01" nType="-99"/>
        </Node>
      </Node>
    </BinaryTree>
    <BinaryTree type="DecisionTree" boostWeight="1.0000000000000000e+00" itree="17">
      <Node pos="s" depth="0" NCoef="0" IVar="0" Cut="1.4856952428817749e+00" cType="1" res="-5.5557716637849808e-02" rms="3.7233123183250427e-01" purity="5.0237894058227539e-01" nType="0">
        <Node pos="l" depth="1" NCoef="0" IVar="0" Cut="1.1004341840744019e+00" cType="1" res="-3.1467577815055847e-01" rms="2.5668793916702271e-01" purity="7.6121792197227478e-02" nType="0">
          <Node pos="l" depth="2" NCoef="0" IVar="-1" Cut="0.0000000000000000e+00" cType="1" res="-1.2920660898089409e-02" rms="1.7842136323451996e-01" purity="3.3711012452840805e-02" nType="-99"/>
          <Node pos="r" depth="2" NCoef="0" IVar="-1" Cut="0.0000000000000000e+00" cType="1" res="-6.8261865526437759e-03" rms="4.2524996399879456e-01" purity="2.5641915202140808e-01" nType="-99"/>
        </Node>
        <Node pos="r" depth="1" NCoef="0" IVar="29" Cut="1.1324058771133423e+00" cType="1" res="1.7353704571723938e-01" rms="3.0182278156280518e-01" purity="8.7924689054489136e-01" nType="0">
          <Node pos="l" depth="2" NCoef="0" IVar="-1" Cut="0.0000000000000000e+00" cType="1" res="4.6701063401997089e-03" rms="4.1679912805557251e-01" purity="7.2687464952468872e-01" nType="-99"/>
          <Node pos="r" depth="2" NCoef="0" IVar="-1" Cut="0.0000000000000000e+00" cType="1" res="2.6548704132437706e-02" rms="2.2265937924385071e-01" purity="9.4305753707885742e-01" nType="-99"/>
        </Node>
      </Node>
    </BinaryTree>
    <BinaryTree type="DecisionTree" boostWeight="1.0000000000000000e+00" itree="18">
      <Node pos="s" depth="0" NCoef="0" IVar="0" Cut="1.4857251644134521e+00" cType="1" res="-5.8909766376018524e-02" rms="3.6701348423957825e-01" purity="5.0047481060028076e-01" nType="0">
        <Node pos="l" depth="1" NCoef="0" IVar="1" Cut="7.1604233980178833e-01" cType="1" res="-3.0998107790946960e-01" rms="2.5514620542526245e-01" purity="7.5234822928905487e-02" nType="0">
          <Node pos="l" depth="2" NCoef="0" IVar="-1" Cut="0.0000000000000000e+00" cType="1" res="-1.2388967908918858e-02" rms="1.9963793456554413e-01" purity="4.2049355804920197e-02" nType="-99"/>
          <Node pos="r" depth="2" NCoef="0" IVar="-1" Cut="0.0000000000000000e+00" cType="1" res="-5.2283857949078083e-03" rms="4.5629763603210449e-01" purity="3.1667283177375793e-01" nType="-99"/>
        </Node>
        <Node pos="r" depth="1" NCoef="0" IVar="0" Cut="2.0087146759033203e+00" cType="1" res="1.6406431794166565e-01" rms="3.0134627223014832e-01" purity="8.7812644243240356e-01" nType="0">
          <Node pos="l" depth="2" NCoef="0" IVar="-1" Cut="0.0000000000000000e+00" cType="1" res="9.2889188090339303e-04" rms="4.6921572089195251e-01" purity="6.1093598604202271e-01" nType="-99"/>
          <Node pos="r" depth="2" NCoef="0" IVar="-1" Cut="0.0000000000000000e+00" cType="1" res="2.4261372163891792e-02" rms="2.3302721977233887e-01" purity="9.4043624401092529e-01" nType="-99"/>
        </Node>
      </Node>
    </BinaryTree>
    <BinaryTree type="DecisionTree" boostWeight="1.0000000000000000e+00" itree="19">
      <Node pos="s" depth="0" NCoef="0" IVar="0" Cut="1.6480090618133545e+00" cType="1" res="-5.8924943208694458e-02" rms="3.6191478371620178e-01" purity="5.0201535224914551e-01" nType="0">
        <Node pos="l" depth="1" NCoef="0" IVar="1" Cut="9.1332757472991943e-01" cType="1" res="-2.9057377576828003e-01" rms="2.7934783697128296e-01" purity="9.9200725555419922e-02" nType="0">
          <Node pos="l" depth="2" NCoef="0" IVar="-1" Cut="0.0000000000000000e+00" cType="1" res="-1.1934191919863224e-02" rms="2.3849548399448395e-01" purity="6.5253548324108124e-02" nType="-99"/>
          <Node pos="r" depth="2" NCoef="0" IVar="-1" Cut="0.0000000000000000e+00" cType="1" res="2.6841198559850454e-03" rms="4.8631167411804199e-01" purity="5.5102604627609253e-01" nType="-99"/>
        </Node>
        <Node pos="r" depth="1" NCoef="0" IVar="10" Cut="2.1428570747375488e+00" cType="1" res="1.7258901894092560e-01" rms="2.7689331769943237e-01" purity="9.0459543466567993e-01" nType="0">
          <Node pos="l" depth="2" NCoef="0" IVar="-1" Cut="0.0000000000000000e+00" cType="1" res="2.3862449452280998e-02" rms="2.3478551208972931e-01" purity="9.3534332513809204e-01" nType="-99"/>
          <Node pos="r" depth="2" NCoef="0" IVar="-1" Cut="0.0000000000000000e+00" cType="1" res="3.9016895461827517e-03" rms="4.0745747089385986e-01" purity="7.5098395347595215e-01" nType="-99"/>
        </Node>
      </Node>
    </BinaryTree>
    <BinaryTree type="DecisionTree" boostWeight="1.0000000000000000e+00" itree="20">
      <Node pos="s" depth="0" NCoef="0" IVar="0" Cut="1.4856952428817749e+00" cType="1" res="-5.8957379311323166e-02" rms="3.5743993520736694e-01" purity="5.0231742858886719e-01" nType="0">
        <Node pos="l" depth="1" NCoef="0" IVar="1" Cut="7.7429735660552979e-01" cType="1" res="-2.9720565676689148e-01" rms="2.5698316097259521e-01" purity="7.7046774327754974e-02" nType="0">
          <Node pos="l" depth="2" NCoef="0" IVar="-1" Cut="0.0000000000000000e+00" cType="1" res="-1.2108257971704006e-02" rms="2.0853160321712494e-01" purity="4.6122636646032333e-02" nType="-99"/>
          <Node pos="r" depth="2" NCoef="0" IVar="-1" Cut="0.0000000000000000e+00" cType="1" res="-2.4333701003342867e-03" rms="4.8433995246887207e-01" purity="3.9981758594512939e-01" nType="-99"/>
        </Node>
        <Node pos="r" depth="1" NCoef="0" IVar="29" Cut="9.2025119066238403e-01" cType="1" res="1.5416365861892700e-01" rms="2.9458492994308472e-01" purity="8.8273626565933228e-01" nType="0">
          <Node pos="l" depth="2" NCoef="0" IVar="-1" Cut="0.0000000000000000e+00" cType="1" res="-5.2972894627600908e-04" rms="4.5326322317123413e-01" purity="6.3124567270278931e-01" nType="-99"/>
          <Node pos="r" depth="2" NCoef="0" IVar="-1" Cut="0.0000000000000000e+00" cType="1" res="2.1728087216615677e-02" rms="2.5103470683097839e-01" purity="9.2270696163177490e-01" nType="-99"/>
        </Node>
      </Node>
    </BinaryTree>
    <BinaryTree type="DecisionTree" boostWeight="1.0000000000000000e+00" itree="21">
      <Node pos="s" depth="0" NCoef="0" IVar="0" Cut="1.3397127389907837e+00" cType="1" res="-6.4681895077228546e-02" rms="3.5366463661193848e-01" purity="4.9827426671981812e-01" nType="0">
        <Node pos="l" depth="1" NCoef="0" IVar="1" Cut="6.6292428970336914e-01" cType="1" res="-3.1158506870269775e-01" rms="2.2011397778987885e-01" purity="5.4316334426403046e-02" nType="0">
          <Node pos="l" depth="2" NCoef="0" IVar="-1" Cut="0.0000000000000000e+00" cType="1" res="-1.2525267899036407e-02" rms="1.6874910891056061e-01" purity="2.9406910762190819e-02" nType="-99"/>
          <Node pos="r" depth="2" NCoef="0" IVar="-1" Cut="0.0000000000000000e+00" cType="1" res="-7.4195247143507004e-03" rms="4.1351976990699768e-01" purity="2.3365215957164764e-01" nType="-99"/>
        </Node>
        <Node pos="r" depth="1" NCoef="0" IVar="0" Cut="1.7964941263198853e+00" cType="1" res="1.2763628363609314e-01" rms="3.1669545173645020e-01" purity="8.4408271312713623e-01" nType="0">
          <Node pos="l" depth="2" NCoef="0" IVar="-1" Cut="0.0000000000000000e+00" cType="1" res="-3.4500842448323965e-03" rms="4.7575026750564575e-01" purity="4.4719898700714111e-01" nType="-99"/>
          <Node pos="r" depth="2" NCoef="0" IVar="-1" Cut="0.0000000000000000e+00" cType="1" res="2.0500736311078072e-02" rms="2.5593537092208862e-01" purity="9.2326509952545166e-01" nType="-99"/>
        </Node>
      </Node>
    </BinaryTree>
    <BinaryTree type="DecisionTree" boostWeight="1.0000000000000000e+00" itree="22">
      <Node pos="s" depth="0" NCoef="0" IVar="0" Cut="1.4857379198074341e+00" cType="1" res="-6.4534150063991547e-02" rms="3.4970894455909729e-01" purity="4.9879404902458191e-01" nType="0">
        <Node pos="l" depth="1" NCoef="0" IVar="1" Cut="7.7763015031814575e-01" cType="1" res="-2.8957530856132507e-01" rms="2.5189542770385742e-01" purity="7.4162043631076813e-02" nType="0">
          <Node pos="l" depth="2" NCoef="0" IVar="-1" Cut="0.0000000000000000e+00" cType="1" res="-1.1911678127944469e-02" rms="2.0536009967327118e-01" purity="4.4747136533260345e-02" nType="-99"/>
          <Node pos="r" depth="2" NCoef="0" IVar="-1" Cut="0.0000000000000000e+00" cType="1" res="-2.8387056663632393e-03" rms="4.7985514998435974e-01" purity="3.8405111432075500e-01" nType="-99"/>
        </Node>
        <Node pos="r" depth="1" NCoef="0" IVar="10" Cut="2.1428570747375488e+00" cType="1" res="1.3660772144794464e-01" rms="2.9861149191856384e-01" purity="8.7833034992218018e-01" nType="0">
          <Node pos="l" depth="2" NCoef="0" IVar="-1" Cut="0.0000000000000000e+00" cType="1" res="2.0172895863652229e-02" rms="2.5553598999977112e-01" purity="9.1731530427932739e-01" nType="-99"/>
          <Node pos="r" depth="2" NCoef="0" IVar="-1" Cut="0.0000000000000000e+00" cType="1" res="-4.2618822772055864e-04" rms="4.2367574572563171e-01" purity="6.9072490930557251e-01" nType="-99"/>
        </Node>
      </Node>
    </BinaryTree>
    <BinaryTree type="DecisionTree" boostWeight="1.0000000000000000e+00" itree="23">
      <Node pos="s" depth="0" NCoef="0" IVar="0" Cut="1.4856952428817749e+00" cType="1" res="-6.4886257052421570e-02" rms="3.4581220149993896e-01" purity="4.9931904673576355e-01" nType="0">
        <Node pos="l" depth="1" NCoef="0" IVar="1" Cut="8.3625173568725586e-01" cType="1" res="-2.8348466753959656e-01" rms="2.5324907898902893e-01" purity="7.5409471988677979e-02" nType="0">
          <Node pos="l" depth="2" NCoef="0" IVar="-1" Cut="0.0000000000000000e+00" cType="1" res="-1.1644951067864895e-02" rms="2.1387507021427155e-01" purity="4.9214538186788559e-02" nType="-99"/>
          <Node pos="r" depth="2" NCoef="0" IVar="-1" Cut="0.0000000000000000e+00" cType="1" res="-8.8195368880406022e-04" rms="4.9131679534912109e-01" purity="4.3544766306877136e-01" nType="-99"/>
        </Node>
        <Node pos="r" depth="1" NCoef="0" IVar="0" Cut="2.0085098743438721e+00" cType="1" res="1.3091482222080231e-01" rms="2.9684051871299744e-01" purity="8.7901973724365234e-01" nType="0">
          <Node pos="l" depth="2" NCoef="0" IVar="-1" Cut="0.0000000000000000e+00" cType="1" res="-2.0506264991126955e-04" rms="4.6445137262344360e-01" purity="6.1363524198532104e-01" nType="-99"/>
          <Node pos="r" depth="2" NCoef="0" IVar="-1" Cut="0.0000000000000000e+00" cType="1" res="2.1888431161642075e-02" rms="2.3161678016185760e-01" purity="9.4009006023406982e-01" nType="-99"/>
        </Node>
      </Node>
    </BinaryTree>
    <BinaryTree type="DecisionTree" boostWeight="1.0000000000000000e+00" itree="24">
      <Node pos="s" depth="0" NCoef="0" IVar="0" Cut="1.3397127389907837e+00" cType="1" res="-6.5370418131351471e-02" rms="3.4298485517501831e-01" purity="4.9979585409164429e-01" nType="0">
        <Node pos="l" depth="1" NCoef="0" IVar="1" Cut="6.6070163249969482e-01" cType="1" res="-2.9390719532966614e-01" rms="2.2424253821372986e-01" purity="5.6557673960924149e-02" nType="0">
          <Node pos="l" depth="2" NCoef="0" IVar="-1" Cut="0.0000000000000000e+00" cType="1" res="-1.1918623931705952e-02" rms="1.7445205152034760e-01" purity="3.1505931168794632e-02" nType="-99"/>
          <Node pos="r" depth="2" NCoef="0" IVar="-1" Cut="0.0000000000000000e+00" cType="1" res="-7.2023146785795689e-03" rms="4.1343832015991211e-01" purity="2.3197165131568909e-01" nType="-99"/>
        </Node>
        <Node pos="r" depth="1" NCoef="0" IVar="1" Cut="7.2645312547683716e-01" cType="1" res="1.1648833006620407e-01" rms="3.1080803275108337e-01" purity="8.5250389575958252e-01" nType="0">
          <Node pos="l" depth="2" NCoef="0" IVar="-1" Cut="0.0000000000000000e+00" cType="1" res="1.9745710305869579e-03" rms="3.7515464425086975e-01" purity="7.3398745059967041e-01" nType="-99"/>
          <Node pos="r" depth="2" NCoef="0" IVar="-1" Cut="0.0000000000000000e+00" cType="1" res="1.9863259047269821e-02" rms="2.5794187188148499e-01" purity="9.1482883691787720e-01" nType="-99"/>
        </Node>
      </Node>
    </BinaryTree>
    <BinaryTree type="DecisionTree" boostWeight="1.0000000000000000e+00" itree="25">
      <Node pos="s" depth="0" NCoef="0" IVar="0" Cut="1.6673139333724976e+00" cType="1" res="-6.7845791578292847e-02" rms="3.3910489082336426e-01" purity="4.9625226855278015e-01" nType="0">
        <Node pos="l" depth="1" NCoef="0" IVar="1" Cut="9.8786211013793945e-01" cType="1" res="-2.6226463913917542e-01" rms="2.7727732062339783e-01" purity="1.0223149508237839e-01" nType="0">
          <Node pos="l" depth="2" NCoef="0" IVar="-1" Cut="0.0000000000000000e+00" cType="1" res="-1.1091485619544983e-02" rms="2.4612668156623840e-01" purity="7.2222813963890076e-02" nType="-99"/>
          <Node pos="r" depth="2" NCoef="0" IVar="-1" Cut="0.0000000000000000e+00" cType="1" res="6.2379301525652409e-03" rms="4.7008374333381653e-01" purity="6.2343186140060425e-01" nType="-99"/>
        </Node>
        <Node pos="r" depth="1" NCoef="0" IVar="0" Cut="2.4314997196197510e+00" cType="1" res="1.3435335457324982e-01" rms="2.7282008528709412e-01" purity="9.0604108572006226e-01" nType="0">
          <Node pos="l" depth="2" NCoef="0" IVar="-1" Cut="0.0000000000000000e+00" cType="1" res="6.0990126803517342e-03" rms="3.7672641873359680e-01" purity="7.9957997798919678e-01" nType="-99"/>
          <Node pos="r" depth="2" NCoef="0" IVar="-1" Cut="0.0000000000000000e+00" cType="1" res="2.5319311767816544e-02" rms="1.8847326934337616e-01" purity="9.6160966157913208e-01" nType="-99"/>
        </Node>
      </Node>
    </BinaryTree>
    <BinaryTree type="DecisionTree" boostWeight="1.0000000000000000e+00" itree="26">
      <Node pos="s" depth="0" NCoef="0" IVar="0" Cut="1.4856952428817749e+00" cType="1" res="-6.3001886010169983e-02" rms="3.3524739742279053e-01" purity="5.0511062145233154e-01" nType="0">
        <Node pos="l" depth="1" NCoef="0" IVar="0" Cut="1.1554647684097290e+00" cType="1" res="-2.6891919970512390e-01" rms="2.5238230824470520e-01" purity="7.5640365481376648e-02" nType="0">
          <Node pos="l" depth="2" NCoef="0" IVar="-1" Cut="0.0000000000000000e+00" cType="1" res="-1.1750238016247749e-02" rms="1.8536937236785889e-01" purity="3.7027027457952499e-02" nType="-99"/>
          <Node pos="r" depth="2" NCoef="0" IVar="-1" Cut="0.0000000000000000e+00" cType="1" res="-4.7447676770389080e-03" rms="4.3191558122634888e-01" purity="2.7862840890884399e-01" nType="-99"/>
        </Node>
        <Node pos="r" depth="1" NCoef="0" IVar="10" Cut="2.1428570747375488e+00" cType="1" res="1.1778029054403305e-01" rms="2.9194632172584534e-01" purity="8.8215792179107666e-01" nType="0">
          <Node pos="l" depth="2" NCoef="0" IVar="-1" Cut="0.0000000000000000e+00" cType="1" res="1.8631307408213615e-02" rms="2.5167378783226013e-01" purity="9.1908586025238037e-01" nType="-99"/>
          <Node pos="r" depth="2" NCoef="0" IVar="-1" Cut="0.0000000000000000e+00" cType="1" res="-9.4377005007117987e-04" rms="4.1484084725379944e-01" purity="7.0110708475112915e-01" nType="-99"/>
        </Node>
      </Node>
    </BinaryTree>
    <BinaryTree type="DecisionTree" boostWeight="1.0000000000000000e+00" itree="27">
      <Node pos="s" depth="0" NCoef="0" IVar="0" Cut="1.4542500972747803e+00" cType="1" res="-6.5248914062976837e-02" rms="3.3324664831161499e-01" purity="5.0227057933807373e-01" nType="0">
        <Node pos="l" depth="1" NCoef="0" IVar="1" Cut="8.1627064943313599e-01" cType="1" res="-2.6590001583099365e-01" rms="2.4868077039718628e-01" purity="7.2746969759464264e-02" nType="0">
          <Node pos="l" depth="2" NCoef="0" IVar="-1" Cut="0.0000000000000000e+00" cType="1" res="-1.1143670417368412e-02" rms="2.1052244305610657e-01" purity="4.7329626977443695e-02" nType="-99"/>
          <Node pos="r" depth="2" NCoef="0" IVar="-1" Cut="0.0000000000000000e+00" cType="1" res="-1.3872984563931823e-03" rms="4.8587870597839355e-01" purity="4.1275578737258911e-01" nType="-99"/>
        </Node>
        <Node pos="r" depth="1" NCoef="0" IVar="0" Cut="1.9628620147705078e+00" cType="1" res="1.0747434198856354e-01" rms="2.9820224642753601e-01" purity="8.7201052904129028e-01" nType="0">
          <Node pos="l" depth="2" NCoef="0" IVar="-1" Cut="0.0000000000000000e+00" cType="1" res="-1.3757427223026752e-03" rms="4.6486717462539673e-01" purity="5.8359652757644653e-01" nType="-99"/>
          <Node pos="r" depth="2" NCoef="0" IVar="-1" Cut="0.0000000000000000e+00" cType="1" res="1.9975040107965469e-02" rms="2.3453746736049652e-01" purity="9.3795078992843628e-01" nType="-99"/>
        </Node>
      </Node>
    </BinaryTree>
    <BinaryTree type="DecisionTree" boostWeight="1.0000000000000000e+00" itree="28">
      <Node pos="s" depth="0" NCoef="0" IVar="0" Cut="1.4542500972747803e+00" cType="1" res="-6.8265050649642944e-02" rms="3.3000779151916504e-01" purity="5.0040346384048462e-01" nType="0">
        <Node pos="l" depth="1" NCoef="0" IVar="1" Cut="7.6302939653396606e-01" cType="1" res="-2.6497548818588257e-01" rms="2.4271279573440552e-01" purity="6.9286145269870758e-02" nType="0">
          <Node pos="l" depth="2" NCoef="0" IVar="-1" Cut="0.0000000000000000e+00" cType="1" res="-1.1331876739859581e-02" rms="1.9675497710704803e-01" purity="4.0865179151296616e-02" nType="-99"/>
          <Node pos="r" depth="2" NCoef="0" IVar="-1" Cut="0.0000000000000000e+00" cType="1" res="-3.4666864667087793e-03" rms="4.6860778331756592e-01" purity="3.5169136524200439e-01" nType="-99"/>
        </Node>
        <Node pos="r" depth="1" NCoef="0" IVar="29" Cut="1.1470196247100830e+00" cType="1" res="1.0093986243009567e-01" rms="2.9999223351478577e-01" purity="8.7123876810073853e-01" nType="0">
          <Node pos="l" depth="2" NCoef="0" IVar="-1" Cut="0.0000000000000000e+00" cType="1" res="3.4890841925516725e-04" rms="4.1018065810203552e-01" purity="7.1493631601333618e-01" nType="-99"/>
          <Node pos="r" depth="2" NCoef="0" IVar="-1" Cut="0.0000000000000000e+00" cType="1" res="2.1600848063826561e-02" rms="2.1968080103397369e-01" purity="9.4233727455139160e-01" nType="-99"/>
        </Node>
      </Node>
    </BinaryTree>
    <BinaryTree type="DecisionTree" boostWeight="1.0000000000000000e+00" itree="29">
      <Node pos="s" depth="0" NCoef="0" IVar="0" Cut="1.4857794046401978e+00" cType="1" res="-6.7910127341747284e-02" rms="3.2784664630889893e-01" purity="4.9885627627372742e-01" nType="0">
        <Node pos="l" depth="1" NCoef="0" IVar="0" Cut="1.1555747985839844e+00" cType="1" res="-2.5495660305023193e-01" rms="2.5174424052238464e-01" purity="7.5694337487220764e-02" nType="0">
          <Node pos="l" depth="2" NCoef="0" IVar="-1" Cut="0.0000000000000000e+00" cType="1" res="-1.1223969981074333e-02" rms="1.8777602910995483e-01" purity="3.7848100066184998e-02" nType="-99"/>
          <Node pos="r" depth="2" NCoef="0" IVar="-1" Cut="0.0000000000000000e+00" cType="1" res="-4.4564418494701385e-03" rms="4.2897394299507141e-01" purity="2.7605730295181274e-01" nType="-99"/>
        </Node>
        <Node pos="r" depth="1" NCoef="0" IVar="10" Cut="2.1428570747375488e+00" cType="1" res="1.0015498101711273e-01" rms="2.9569196701049805e-01" purity="8.7907606363296509e-01" nType="0">
          <Node pos="l" depth="2" NCoef="0" IVar="-1" Cut="0.0000000000000000e+00" cType="1" res="1.7539458349347115e-02" rms="2.5328251719474792e-01" purity="9.1853964328765869e-01" nType="-99"/>
          <Node pos="r" depth="2" NCoef="0" IVar="-1" Cut="0.0000000000000000e+00" cType="1" res="-2.0968320313841105e-03" rms="4.2052221298217773e-01" purity="6.9368189573287964e-01" nType="-99"/>
        </Node>
      </Node>
    </BinaryTree>
    <BinaryTree type="DecisionTree" boostWeight="1.0000000000000000e+00" itree="30">
      <Node pos="s" depth="0" NCoef="0" IVar="0" Cut="1.4856952428817749e+00" cType="1" res="-6.6444486379623413e-02" rms="3.2292753458023071e-01" purity="5.0192165374755859e-01" nType="0">
        <Node pos="l" depth="1" NCoef="0" IVar="1" Cut="8.3606564998626709e-01" cType="1" res="-2.5312021374702454e-01" rms="2.4755886197090149e-01" purity="7.3411896824836731e-02" nType="0">
          <Node pos="l" depth="2" NCoef="0" IVar="-1" Cut="0.0000000000000000e+00" cType="1" res="-1.1009626090526581e-02" rms="2.0998521149158478e-01" purity="4.7629348933696747e-02" nType="-99"/>
          <Node pos="r" depth="2" NCoef="0" IVar="-1" Cut="0.0000000000000000e+00" cType="1" res="-1.1630770750343800e-03" rms="4.8672851920127869e-01" purity="4.2074081301689148e-01" nType="-99"/>
        </Node>
        <Node pos="r" depth="1" NCoef="0" IVar="1" Cut="7.1418046951293945e-01" cType="1" res="1.0011857748031616e-01" rms="2.8949946165084839e-01" purity="8.8426321744918823e-01" nType="0">
          <Node pos="l" depth="2" NCoef="0" IVar="-1" Cut="0.0000000000000000e+00" cType="1" res="1.9599024672061205e-03" rms="3.6243581771850586e-01" purity="7.8619265556335449e-01" nType="-99"/>
          <Node pos="r" depth="2" NCoef="0" IVar="-1" Cut="0.0000000000000000e+00" cType="1" res="1.9423404708504677e-02" rms="2.3824529349803925e-01" purity="9.3070626258850098e-01" nType="-99"/>
        </Node>
      </Node>
    </BinaryTree>
    <BinaryTree type="DecisionTree" boostWeight="1.0000000000000000e+00" itree="31">
      <Node pos="s" depth="0" NCoef="0" IVar="0" Cut="1.3218638896942139e+00" cType="1" res="-7.0649676024913788e-02" rms="3.2103455066680908e-01" purity="4.9530231952667236e-01" nType="0">
        <Node pos="l" depth="1" NCoef="0" IVar="1" Cut="7.9964667558670044e-01" cType="1" res="-2.6319399476051331e-01" rms="2.1662886440753937e-01" purity="5.3190652281045914e-02" nType="0">
          <Node pos="l" depth="2" NCoef="0" IVar="-1" Cut="0.0000000000000000e+00" cType="1" res="-1.1001436039805412e-02" rms="1.8518403172492981e-01" purity="3.5940531641244888e-02" nType="-99"/>
          <Node pos="r" depth="2" NCoef="0" IVar="-1" Cut="0.0000000000000000e+00" cType="1" res="-3.7703244015574455e-03" rms="4.6931260824203491e-01" purity="3.3695945143699646e-01" nType="-99"/>
        </Node>
        <Node pos="r" depth="1" NCoef="0" IVar="0" Cut="2.2192897796630859e+00" cType="1" res="8.1703335046768188e-02" rms="3.0811464786529541e-01" purity="8.4512853622436523e-01" nType="0">
          <Node pos="l" depth="2" NCoef="0" IVar="-1" Cut="0.0000000000000000e+00" cType="1" res="-1.4346142997965217e-03" rms="4.3487390875816345e-01" purity="6.2214112281799316e-01" nType="-99"/>
          <Node pos="r" depth="2" NCoef="0" IVar="-1" Cut="0.0000000000000000e+00" cType="1" res="2.1575076505541801e-02" rms="2.0141585171222687e-01" purity="9.5518988370895386e-01" nType="-99"/>
        </Node>
      </Node>
    </BinaryTree>
    <BinaryTree type="DecisionTree" boostWeight="1.0000000000000000e+00" itree="32">
      <Node pos="s" depth="0" NCoef="0" IVar="0" Cut="1.4856952428817749e+00" cType="1" res="-6.8693786859512329e-02" rms="3.1728050112724304e-01" purity="4.9979662895202637e-01" nType="0">
        <Node pos="l" depth="1" NCoef="0" IVar="0" Cut="1.1004637479782104e+00" cType="1" res="-2.4515517055988312e-01" rms="2.4603570997714996e-01" purity="7.2604969143867493e-02" nType="0">
          <Node pos="l" depth="2" NCoef="0" IVar="-1" Cut="0.0000000000000000e+00" cType="1" res="-1.1242795735597610e-02" rms="1.7438052594661713e-01" purity="3.2303728163242340e-02" nType="-99"/>
          <Node pos="r" depth="2" NCoef="0" IVar="-1" Cut="0.0000000000000000e+00" cType="1" res="-5.4613738320767879e-03" rms="4.0879943966865540e-01" purity="2.4054944515228271e-01" nType="-99"/>
        </Node>
        <Node pos="r" depth="1" NCoef="0" IVar="10" Cut="2.1428570747375488e+00" cType="1" res="8.9706107974052429e-02" rms="2.8922390937805176e-01" purity="8.8326370716094971e-01" nType="0">
          <Node pos="l" depth="2" NCoef="0" IVar="-1" Cut="0.0000000000000000e+00" cType="1" res="1.6857478767633438e-02" rms="2.4798373878002167e-01" purity="9.2208528518676758e-01" nType="-99"/>
          <Node pos="r" depth="2" NCoef="0" IVar="-1" Cut="0.0000000000000000e+00" cType="1" res="-2.8353922534734011e-03" rms="4.1570937633514404e-01" purity="6.9314056634902954e-01" nType="-99"/>
        </Node>
      </Node>
    </BinaryTree>
    <BinaryTree type="DecisionTree" boostWeight="1.0000000000000000e+00" itree="33">
      <Node pos="s" depth="0" NCoef="0" IVar="0" Cut="1.3218638896942139e+00" cType="1" res="-7.0488065481185913e-02" rms="3.1634601950645447e-01" purity="4.9883201718330383e-01" nType="0">
        <Node pos="l" depth="1" NCoef="0" IVar="1" Cut="8.0446922779083252e-01" cType="1" res="-2.5447383522987366e-01" rms="2.1696874499320984e-01" purity="5.3357072174549103e-02" nType="0">
          <Node pos="l" depth="2" NCoef="0" IVar="-1" Cut="0.0000000000000000e+00" cType="1" res="-1.0855543427169323e-02" rms="1.8729782104492188e-01" purity="3.6777373403310776e-02" nType="-99"/>
          <Node pos="r" depth="2" NCoef="0" IVar="-1" Cut="0.0000000000000000e+00" cType="1" res="-4.2919795960187912e-03" rms="4.6187001466751099e-01" purity="3.1960681080818176e-01" nType="-99"/>
        </Node>
        <Node pos="r" depth="1" NCoef="0" IVar="1" Cut="7.2645312547683716e-01" cType="1" res="7.2513341903686523e-02" rms="3.0742233991622925e-01" purity="8.4507369995117188e-01" nType="0">
          <Node pos="l" depth="2" NCoef="0" IVar="-1" Cut="0.0000000000000000e+00" cType="1" res="-1.5505760675296187e-03" rms="3.6970895528793335e-01" purity="7.1303075551986694e-01" nType="-99"/>
          <Node pos="r" depth="2" NCoef="0" IVar="-1" Cut="0.0000000000000000e+00" cType="1" res="1.6598163172602654e-02" rms="2.5567594170570374e-01" purity="9.1542154550552368e-01" nType="-99"/>
        </Node>
      </Node>
    </BinaryTree>
    <BinaryTree type="DecisionTree" boostWeight="1.0000000000000000e+00" itree="34">
      <Node pos="s" depth="0" NCoef="0" IVar="0" Cut="1.4542198181152344e+00" cType="1" res="-6.7629069089889526e-02" rms="3.1478387117385864e-01" purity="5.0305056571960449e-01" nType="0">
        <Node pos="l" depth="1" NCoef="0" IVar="0" Cut="1.0794808864593506e+00" cType="1" res="-2.3764905333518982e-01" rms="2.4372752010822296e-01" purity="7.0728488266468048e-02" nType="0">
          <Node pos="l" depth="2" NCoef="0" IVar="-1" Cut="0.0000000000000000e+00" cType="1" res="-1.1196120642125607e-02" rms="1.7037391662597656e-01" purity="3.0717736110091209e-02" nType="-99"/>
          <Node pos="r" depth="2" NCoef="0" IVar="-1" Cut="0.0000000000000000e+00" cType="1" res="-5.3736045956611633e-03" rms="4.0386319160461426e-01" purity="2.2989861667156219e-01" nType="-99"/>
        </Node>
        <Node pos="r" depth="1" NCoef="0" IVar="0" Cut="1.9628088474273682e+00" cType="1" res="7.8043624758720398e-02" rms="2.9513347148895264e-01" purity="8.7346303462982178e-01" nType="0">
          <Node pos="l" depth="2" NCoef="0" IVar="-1" Cut="0.0000000000000000e+00" cType="1" res="-2.4476177059113979e-03" rms="4.5946276187896729e-01" purity="5.8954811096191406e-01" nType="-99"/>
          <Node pos="r" depth="2" NCoef="0" IVar="-1" Cut="0.0000000000000000e+00" cType="1" res="1.7163174226880074e-02" rms="2.3597665131092072e-01" purity="9.3651062250137329e-01" nType="-99"/>
        </Node>
      </Node>
    </BinaryTree>
    <BinaryTree type="DecisionTree" boostWeight="1.0000000000000000e+00" itree="35">
      <Node pos="s" depth="0" NCoef="0" IVar="0" Cut="1.4857255220413208e+00" cType="1" res="-6.6918306052684784e-02" rms="3.1100350618362427e-01" purity="5.0121355056762695e-01" nType="0">
        <Node pos="l" depth="1" NCoef="0" IVar="1" Cut="8.8252788782119751e-01" cType="1" res="-2.2970604896545410e-01" rms="2.4930247664451599e-01" purity="7.5812473893165588e-02" nType="0">
          <Node pos="l" depth="2" NCoef="0" IVar="-1" Cut="0.0000000000000000e+00" cType="1" res="-1.0287848301231861e-02" rms="2.1673515439033508e-01" purity="5.1751438528299332e-02" nType="-99"/>
          <Node pos="r" depth="2" NCoef="0" IVar="-1" Cut="0.0000000000000000e+00" cType="1" res="1.6771566588431597e-03" rms="4.9410927295684814e-01" purity="4.7926589846611023e-01" nType="-99"/>
        </Node>
        <Node pos="r" depth="1" NCoef="0" IVar="29" Cut="1.1272684335708618e+00" cType="1" res="7.9081892967224121e-02" rms="2.8748279809951782e-01" purity="8.8274508714675903e-01" nType="0">
          <Node pos="l" depth="2" NCoef="0" IVar="-1" Cut="0.0000000000000000e+00" cType="1" res="-4.9950979882851243e-04" rms="4.0039598941802979e-01" purity="7.3104649782180786e-01" nType="-99"/>
          <Node pos="r" depth="2" NCoef="0" IVar="-1" Cut="0.0000000000000000e+00" cType="1" res="1.9403025507926941e-02" rms="2.1684646606445312e-01" purity="9.4427126646041870e-01" nType="-99"/>
        </Node>
      </Node>
    </BinaryTree>
    <BinaryTree type="DecisionTree" boostWeight="1.0000000000000000e+00" itree="36">
      <Node pos="s" depth="0" NCoef="0" IVar="0" Cut="1.4856952428817749e+00" cType="1" res="-6.8000353872776031e-02" rms="3.0895894765853882e-01" purity="5.0060141086578369e-01" nType="0">
        <Node pos="l" depth="1" NCoef="0" IVar="1" Cut="6.5886479616165161e-01" cType="1" res="-2.2796112298965454e-01" rms="2.4576519429683685e-01" purity="7.3713287711143494e-02" nType="0">
          <Node pos="l" depth="2" NCoef="0" IVar="-1" Cut="0.0000000000000000e+00" cType="1" res="-1.0780268348753452e-02" rms="1.8150722980499268e-01" purity="3.4867741167545319e-02" nType="-99"/>
          <Node pos="r" depth="2" NCoef="0" IVar="-1" Cut="0.0000000000000000e+00" cType="1" res="-3.7598276976495981e-03" rms="4.3678709864616394e-01" purity="2.9430812597274780e-01" nType="-99"/>
        </Node>
        <Node pos="r" depth="1" NCoef="0" IVar="29" Cut="8.5502910614013672e-01" cType="1" res="7.4852764606475830e-02" rms="2.8897008299827576e-01" purity="8.8183438777923584e-01" nType="0">
          <Node pos="l" depth="2" NCoef="0" IVar="-1" Cut="0.0000000000000000e+00" cType="1" res="-6.0511208139359951e-03" rms="4.5404073596000671e-01" purity="5.7592219114303589e-01" nType="-99"/>
          <Node pos="r" depth="2" NCoef="0" IVar="-1" Cut="0.0000000000000000e+00" cType="1" res="1.4416364021599293e-02" rms="2.5639402866363525e-01" purity="9.1663330793380737e-01" nType="-99"/>
        </Node>
      </Node>
    </BinaryTree>
    <BinaryTree type="DecisionTree" boostWeight="1.0000000000000000e+00" itree="37">
      <Node pos="s" depth="0" NCoef="0" IVar="0" Cut="1.3003791570663452e+00" cType="1" res="-6.8111680448055267e-02" rms="3.0944457650184631e-01" purity="4.9980279803276062e-01" nType="0">
        <Node pos="l" depth="1" NCoef="0" IVar="20" Cut="4.6497960090637207e+00" cType="1" res="-2.3678506910800934e-01" rms="2.1705618500709534e-01" purity="5.3413316607475281e-02" nType="0">
          <Node pos="l" depth="2" NCoef="0" IVar="-1" Cut="0.0000000000000000e+00" cType="1" res="-1.0612665675580502e-02" rms="1.8497553467750549e-01" purity="3.8284070789813995e-02" nType="-99"/>
          <Node pos="r" depth="2" NCoef="0" IVar="-1" Cut="0.0000000000000000e+00" cType="1" res="-5.7256389409303665e-03" rms="3.6405712366104126e-01" purity="1.7079529166221619e-01" nType="-99"/>
        </Node>
        <Node pos="r" depth="1" NCoef="0" IVar="10" Cut="2.2857143878936768e+00" cType="1" res="6.0439255088567734e-02" rms="3.0760267376899719e-01" purity="8.4000933170318604e-01" nType="0">
          <Node pos="l" depth="2" NCoef="0" IVar="-1" Cut="0.0000000000000000e+00" cType="1" res="1.2705599889159203e-02" rms="2.7106899023056030e-01" purity="8.8963270187377930e-01" nType="-99"/>
          <Node pos="r" depth="2" NCoef="0" IVar="-1" Cut="0.0000000000000000e+00" cType="1" res="-5.0826943479478359e-03" rms="4.0731433033943176e-01" purity="6.2128114700317383e-01" nType="-99"/>
        </Node>
      </Node>
    </BinaryTree>
    <BinaryTree type="DecisionTree" boostWeight="1.0000000000000000e+00" itree="38">
      <Node pos="s" depth="0" NCoef="0" IVar="0" Cut="1.6479790210723877e+00" cType="1" res="-6.5732695162296295e-02" rms="3.0578982830047607e-01" purity="5.0315535068511963e-01" nType="0">
        <Node pos="l" depth="1" NCoef="0" IVar="1" Cut="7.7766847610473633e-01" cType="1" res="-2.1094325184822083e-01" rms="2.7020695805549622e-01" purity="1.0247351974248886e-01" nType="0">
          <Node pos="l" depth="2" NCoef="0" IVar="-1" Cut="0.0000000000000000e+00" cType="1" res="-1.0206444188952446e-02" rms="2.1858310699462891e-01" purity="5.4820347577333450e-02" nType="-99"/>
          <Node pos="r" depth="2" NCoef="0" IVar="-1" Cut="0.0000000000000000e+00" cType="1" res="-2.3784479708410800e-04" rms="4.7131809592247009e-01" purity="4.7484004497528076e-01" nType="-99"/>
        </Node>
        <Node pos="r" depth="1" NCoef="0" IVar="29" Cut="8.5727012157440186e-01" cType="1" res="8.0363497138023376e-02" rms="2.6752430200576782e-01" purity="9.0628099441528320e-01" nType="0">
          <Node pos="l" depth="2" NCoef="0" IVar="-1" Cut="0.0000000000000000e+00" cType="1" res="-4.3189022690057755e-03" rms="4.4680809974670410e-01" purity="6.3858896493911743e-01" nType="-99"/>
          <Node pos="r" depth="2" NCoef="0" IVar="-1" Cut="0.0000000000000000e+00" cType="1" res="1.6137804836034775e-02" rms="2.3833677172660828e-01" purity="9.3244343996047974e-01" nType="-99"/>
        </Node>
      </Node>
    </BinaryTree>
    <BinaryTree type="DecisionTree" boostWeight="1.0000000000000000e+00" itree="39">
      <Node pos="s" depth="0" NCoef="0" IVar="0" Cut="1.4856952428817749e+00" cType="1" res="-6.8936705589294434e-02" rms="3.0397385358810425e-01" purity="4.9803182482719421e-01" nType="0">
        <Node pos="l" depth="1" NCoef="0" IVar="1" Cut="8.3625173568725586e-01" cType="1" res="-2.1609620749950409e-01" rms="2.4555183947086334e-01" purity="7.4126221239566803e-02" nType="0">
          <Node pos="l" depth="2" NCoef="0" IVar="-1" Cut="0.0000000000000000e+00" cType="1" res="-9.9922940135002136e-03" rms="2.0955117046833038e-01" purity="4.7936215996742249e-02" nType="-99"/>
          <Node pos="r" depth="2" NCoef="0" IVar="-1" Cut="0.0000000000000000e+00" cType="1" res="-3.5387167008593678e-04" rms="4.8386231064796448e-01" purity="4.2683011293411255e-01" nType="-99"/>
        </Node>
        <Node pos="r" depth="1" NCoef="0" IVar="0" Cut="2.0085098743438721e+00" cType="1" res="6.3051432371139526e-02" rms="2.9043161869049072e-01" purity="8.7823510169982910e-01" nType="0">
          <Node pos="l" depth="2" NCoef="0" IVar="-1" Cut="0.0000000000000000e+00" cType="1" res="-3.1399065628647804e-03" rms="4.5021417737007141e-01" purity="6.1835485696792603e-01" nType="-99"/>
          <Node pos="r" depth="2" NCoef="0" IVar="-1" Cut="0.0000000000000000e+00" cType="1" res="1.6250370070338249e-02" rms="2.2814227640628815e-01" purity="9.4096207618713379e-01" nType="-99"/>
        </Node>
      </Node>
    </BinaryTree>
    <BinaryTree type="DecisionTree" boostWeight="1.0000000000000000e+00" itree="40">
      <Node pos="s" depth="0" NCoef="0" IVar="0" Cut="1.4856952428817749e+00" cType="1" res="-6.7525297403335571e-02" rms="3.0258962512016296e-01" purity="5.0050646066665649e-01" nType="0">
        <Node pos="l" depth="1" NCoef="0" IVar="0" Cut="1.0453455448150635e+00" cType="1" res="-2.1158084273338318e-01" rms="2.4761949479579926e-01" purity="7.4911519885063171e-02" nType="0">
          <Node pos="l" depth="2" NCoef="0" IVar="-1" Cut="0.0000000000000000e+00" cType="1" res="-1.0520373471081257e-02" rms="1.6673366725444794e-01" purity="2.9431058093905449e-02" nType="-99"/>
          <Node pos="r" depth="2" NCoef="0" IVar="-1" Cut="0.0000000000000000e+00" cType="1" res="-5.0405906513333321e-03" rms="3.9699420332908630e-01" purity="2.2391197085380554e-01" nType="-99"/>
        </Node>
        <Node pos="r" depth="1" NCoef="0" IVar="15" Cut="-1.8571429252624512e+00" cType="1" res="6.1172630637884140e-02" rms="2.8892618417739868e-01" purity="8.8072919845581055e-01" nType="0">
          <Node pos="l" depth="2" NCoef="0" IVar="-1" Cut="0.0000000000000000e+00" cType="1" res="1.5044716186821461e-02" rms="2.4169282615184784e-01" purity="9.2168551683425903e-01" nType="-99"/>
          <Node pos="r" depth="2" NCoef="0" IVar="-1" Cut="0.0000000000000000e+00" cType="1" res="-2.5869461242109537e-03" rms="3.6543434858322144e-01" purity="7.8223288059234619e-01" nType="-99"/>
        </Node>
      </Node>
    </BinaryTree>
    <BinaryTree type="DecisionTree" boostWeight="1.0000000000000000e+00" itree="41">
      <Node pos="s" depth="0" NCoef="0" IVar="0" Cut="1.8178209066390991e+00" cType="1" res="-6.6669709980487823e-02" rms="3.0087220668792725e-01" purity="5.0060296058654785e-01" nType="0">
        <Node pos="l" depth="1" NCoef="0" IVar="1" Cut="9.1945534944534302e-01" cType="1" res="-1.9328917562961578e-01" rms="2.8520366549491882e-01" purity="1.3021929562091827e-01" nType="0">
          <Node pos="l" depth="2" NCoef="0" IVar="-1" Cut="0.0000000000000000e+00" cType="1" res="-9.7183501347899437e-03" rms="2.4814319610595703e-01" purity="7.8625358641147614e-02" nType="-99"/>
          <Node pos="r" depth="2" NCoef="0" IVar="-1" Cut="0.0000000000000000e+00" cType="1" res="4.4749053195118904e-03" rms="4.4784247875213623e-01" purity="6.4337903261184692e-01" nType="-99"/>
        </Node>
        <Node pos="r" depth="1" NCoef="0" IVar="17" Cut="1.1953998804092407e+00" cType="1" res="7.8985609114170074e-02" rms="2.4784943461418152e-01" purity="9.2666971683502197e-01" nType="0">
          <Node pos="l" depth="2" NCoef="0" IVar="-1" Cut="0.0000000000000000e+00" cType="1" res="2.2977739572525024e-02" rms="1.6844837367534637e-01" purity="9.6754384040832520e-01" nType="-99"/>
          <Node pos="r" depth="2" NCoef="0" IVar="-1" Cut="0.0000000000000000e+00" cType="1" res="4.5049977488815784e-03" rms="3.2473585009574890e-01" purity="8.6767095327377319e-01" nType="-99"/>
        </Node>
      </Node>
    </BinaryTree>
    <BinaryTree type="DecisionTree" boostWeight="1.0000000000000000e+00" itree="42">
      <Node pos="s" depth="0" NCoef="0" IVar="0" Cut="1.4857251644134521e+00" cType="1" res="-6.7380703985691071e-02" rms="2.9883357882499695e-01" purity="5.0159245729446411e-01" nType="0">
        <Node pos="l" depth="1" NCoef="0" IVar="1" Cut="7.6993882656097412e-01" cType="1" res="-2.0572759211063385e-01" rms="2.4549451470375061e-01" purity="7.4140340089797974e-02" nType="0">
          <Node pos="l" depth="2" NCoef="0" IVar="-1" Cut="0.0000000000000000e+00" cType="1" res="-9.9789928644895554e-03" rms="2.0042406022548676e-01" purity="4.3141081929206848e-02" nType="-99"/>
          <Node pos="r" depth="2" NCoef="0" IVar="-1" Cut="0.0000000000000000e+00" cType="1" res="-1.8569316016510129e-03" rms="4.6808135509490967e-01" purity="3.6649566888809204e-01" nType="-99"/>
        </Node>
        <Node pos="r" depth="1" NCoef="0" IVar="0" Cut="2.0085585117340088e+00" cType="1" res="5.4932545870542526e-02" rms="2.8825059533119202e-01" purity="8.7950515747070312e-01" nType="0">
          <Node pos="l" depth="2" NCoef="0" IVar="-1" Cut="0.0000000000000000e+00" cType="1" res="-3.3560662996023893e-03" rms="4.4869390130043030e-01" purity="6.2015140056610107e-01" nType="-99"/>
          <Node pos="r" depth="2" NCoef="0" IVar="-1" Cut="0.0000000000000000e+00" cType="1" res="1.5134836547076702e-02" rms="2.2780217230319977e-01" purity="9.4075101613998413e-01" nType="-99"/>
        </Node>
      </Node>
    </BinaryTree>
    <BinaryTree type="DecisionTree" boostWeight="1.0000000000000000e+00" itree="43">
      <Node pos="s" depth="0" NCoef="0" IVar="0" Cut="1.3004094362258911e+00" cType="1" res="-6.7422874271869659e-02" rms="2.9755198955535889e-01" purity="5.0084239244461060e-01" nType="0">
        <Node pos="l" depth="1" NCoef="0" IVar="0" Cut="9.7694635391235352e-01" cType="1" res="-2.1659362316131592e-01" rms="2.1118868887424469e-01" purity="5.0613407045602798e-02" nType="0">
          <Node pos="l" depth="2" NCoef="0" IVar="-1" Cut="0.0000000000000000e+00" cType="1" res="-1.0504984296858311e-02" rms="1.5192547440528870e-01" purity="2.4161228910088539e-02" nType="-99"/>
          <Node pos="r" depth="2" NCoef="0" IVar="-1" Cut="0.0000000000000000e+00" cType="1" res="-7.1162423118948936e-03" rms="3.3718812465667725e-01" purity="1.4192028343677521e-01" nType="-99"/>
        </Node>
        <Node pos="r" depth="1" NCoef="0" IVar="0" Cut="2.1783671379089355e+00" cType="1" res="4.5626353472471237e-02" rms="3.0362933874130249e-01" purity="8.4204894304275513e-01" nType="0">
          <Node pos="l" depth="2" NCoef="0" IVar="-1" Cut="0.0000000000000000e+00" cType="1" res="-2.7195136062800884e-03" rms="4.3195509910583496e-01" purity="6.0349386930465698e-01" nType="-99"/>
          <Node pos="r" depth="2" NCoef="0" IVar="-1" Cut="0.0000000000000000e+00" cType="1" res="1.7127916216850281e-02" rms="2.1042600274085999e-01" purity="9.5082980394363403e-01" nType="-99"/>
        </Node>
      </Node>
    </BinaryTree>
    <BinaryTree type="DecisionTree" boostWeight="1.0000000000000000e+00" itree="44">
      <Node pos="s" depth="0" NCoef="0" IVar="0" Cut="1.4856952428817749e+00" cType="1" res="-6.7483387887477875e-02" rms="2.9542696475982666e-01" purity="4.9691766500473022e-01" nType="0">
        <Node pos="l" depth="1" NCoef="0" IVar="0" Cut="1.1554964780807495e+00" cType="1" res="-1.9722665846347809e-01" rms="2.4489542841911316e-01" purity="7.4547998607158661e-02" nType="0">
          <Node pos="l" depth="2" NCoef="0" IVar="-1" Cut="0.0000000000000000e+00" cType="1" res="-9.9204368889331818e-03" rms="1.8478548526763916e-01" purity="3.7230372428894043e-02" nType="-99"/>
          <Node pos="r" depth="2" NCoef="0" IVar="-1" Cut="0.0000000000000000e+00" cType="1" res="-3.0778564978390932e-03" rms="4.2237564921379089e-01" purity="2.7620279788970947e-01" nType="-99"/>
        </Node>
        <Node pos="r" depth="1" NCoef="0" IVar="15" Cut="-1.8571429252624512e+00" cType="1" res="5.0184417515993118e-02" rms="2.8797036409378052e-01" purity="8.7997645139694214e-01" nType="0">
          <Node pos="l" depth="2" NCoef="0" IVar="-1" Cut="0.0000000000000000e+00" cType="1" res="1.3709144666790962e-02" rms="2.4239084124565125e-01" purity="9.2146766185760498e-01" nType="-99"/>
          <Node pos="r" depth="2" NCoef="0" IVar="-1" Cut="0.0000000000000000e+00" cType="1" res="-3.0266141984611750e-03" rms="3.6211863160133362e-01" purity="7.8230428695678711e-01" nType="-99"/>
        </Node>
      </Node>
    </BinaryTree>
    <BinaryTree type="DecisionTree" boostWeight="1.0000000000000000e+00" itree="45">
      <Node pos="s" depth="0" NCoef="0" IVar="0" Cut="1.4857255220413208e+00" cType="1" res="-6.7503035068511963e-02" rms="2.9483574628829956e-01" purity="4.9898761510848999e-01" nType="0">
        <Node pos="l" depth="1" NCoef="0" IVar="1" Cut="7.7762997150421143e-01" cType="1" res="-1.9466781616210938e-01" rms="2.4371117353439331e-01" purity="7.3940254747867584e-02" nType="0">
          <Node pos="l" depth="2" NCoef="0" IVar="-1" Cut="0.0000000000000000e+00" cType="1" res="-9.6746655181050301e-03" rms="2.0026129484176636e-01" purity="4.3392691761255264e-02" nType="-99"/>
          <Node pos="r" depth="2" NCoef="0" IVar="-1" Cut="0.0000000000000000e+00" cType="1" res="-5.1463692216202617e-04" rms="4.7466289997100830e-01" purity="3.9558213949203491e-01" nType="-99"/>
        </Node>
        <Node pos="r" depth="1" NCoef="0" IVar="17" Cut="1.4071691036224365e+00" cType="1" res="4.6035848557949066e-02" rms="2.9014077782630920e-01" purity="8.7849050760269165e-01" nType="0">
          <Node pos="l" depth="2" NCoef="0" IVar="-1" Cut="0.0000000000000000e+00" cType="1" res="1.6041534021496773e-02" rms="2.1983885765075684e-01" purity="9.3507993221282959e-01" nType="-99"/>
          <Node pos="r" depth="2" NCoef="0" IVar="-1" Cut="0.0000000000000000e+00" cType="1" res="-2.1270203869789839e-03" rms="3.6971807479858398e-01" purity="7.8465521335601807e-01" nType="-99"/>
        </Node>
      </Node>
    </BinaryTree>
    <BinaryTree type="DecisionTree" boostWeight="1.0000000000000000e+00" itree="46">
      <Node pos="s" depth="0" NCoef="0" IVar="0" Cut="1.3218936920166016e+00" cType="1" res="-6.4609363675117493e-02" rms="2.9200422763824463e-01" purity="5.0444793701171875e-01" nType="0">
        <Node pos="l" depth="1" NCoef="0" IVar="1" Cut="6.5268957614898682e-01" cType="1" res="-2.0444539189338684e-01" rms="2.1420408785343170e-01" purity="5.2758269011974335e-02" nType="0">
          <Node pos="l" depth="2" NCoef="0" IVar="-1" Cut="0.0000000000000000e+00" cType="1" res="-1.0190640576183796e-02" rms="1.6737818717956543e-01" purity="2.9122859239578247e-02" nType="-99"/>
          <Node pos="r" depth="2" NCoef="0" IVar="-1" Cut="0.0000000000000000e+00" cType="1" res="-5.1257614977657795e-03" rms="3.9696952700614929e-01" purity="2.1460887789726257e-01" nType="-99"/>
        </Node>
        <Node pos="r" depth="1" NCoef="0" IVar="10" Cut="2.1428570747375488e+00" cType="1" res="4.2431138455867767e-02" rms="2.9830741882324219e-01" purity="8.5020345449447632e-01" nType="0">
          <Node pos="l" depth="2" NCoef="0" IVar="-1" Cut="0.0000000000000000e+00" cType="1" res="1.0456654243171215e-02" rms="2.6556244492530823e-01" purity="8.9433228969573975e-01" nType="-99"/>
          <Node pos="r" depth="2" NCoef="0" IVar="-1" Cut="0.0000000000000000e+00" cType="1" res="-5.2164406515657902e-03" rms="3.9738059043884277e-01" purity="6.4805710315704346e-01" nType="-99"/>
        </Node>
      </Node>
    </BinaryTree>
    <BinaryTree type="DecisionTree" boostWeight="1.0000000000000000e+00" itree="47">
      <Node pos="s" depth="0" NCoef="0" IVar="0" Cut="1.2086658477783203e+00" cType="1" res="-6.3228771090507507e-02" rms="2.9145562648773193e-01" purity="5.0638186931610107e-01" nType="0">
        <Node pos="l" depth="1" NCoef="0" IVar="20" Cut="5.0053186416625977e+00" cType="1" res="-2.0950567722320557e-01" rms="1.9127783179283142e-01" purity="4.0595039725303650e-02" nType="0">
          <Node pos="l" depth="2" NCoef="0" IVar="-1" Cut="0.0000000000000000e+00" cType="1" res="-1.0082691907882690e-02" rms="1.7009443044662476e-01" purity="3.1940463930368423e-02" nType="-99"/>
          <Node pos="r" depth="2" NCoef="0" IVar="-1" Cut="0.0000000000000000e+00" cType="1" res="-5.0594215281307697e-03" rms="3.5322427749633789e-01" purity="1.5527772903442383e-01" nType="-99"/>
        </Node>
        <Node pos="r" depth="1" NCoef="0" IVar="1" Cut="7.2645455598831177e-01" cType="1" res="3.6073319613933563e-02" rms="3.0559638142585754e-01" purity="8.2258772850036621e-01" nType="0">
          <Node pos="l" depth="2" NCoef="0" IVar="-1" Cut="0.0000000000000000e+00" cType="1" res="-4.1094650514423847e-03" rms="3.6042580008506775e-01" purity="6.7377430200576782e-01" nType="-99"/>
          <Node pos="r" depth="2" NCoef="0" IVar="-1" Cut="0.0000000000000000e+00" cType="1" res="1.3099798001348972e-02" rms="2.5763651728630066e-01" purity="9.0823346376419067e-01" nType="-99"/>
        </Node>
      </Node>
    </BinaryTree>
    <BinaryTree type="DecisionTree" boostWeight="1.0000000000000000e+00" itree="48">
      <Node pos="s" depth="0" NCoef="0" IVar="0" Cut="1.8446766138076782e+00" cType="1" res="-6.7065142095088959e-02" rms="2.9304134845733643e-01" purity="4.9885031580924988e-01" nType="0">
        <Node pos="l" depth="1" NCoef="0" IVar="1" Cut="9.2947989702224731e-01" cType="1" res="-1.7315410077571869e-01" rms="2.8366830945014954e-01" purity="1.3386285305023193e-01" nType="0">
          <Node pos="l" depth="2" NCoef="0" IVar="-1" Cut="0.0000000000000000e+00" cType="1" res="-9.3153920024633408e-03" rms="2.4994267523288727e-01" purity="8.1044375896453857e-02" nType="-99"/>
          <Node pos="r" depth="2" NCoef="0" IVar="-1" Cut="0.0000000000000000e+00" cType="1" res="3.5775562282651663e-03" rms="4.4242444634437561e-01" purity="6.4133548736572266e-01" nType="-99"/>
        </Node>
        <Node pos="r" depth="1" NCoef="0" IVar="15" Cut="-1.8571430444717407e+00" cType="1" res="5.6077707558870316e-02" rms="2.5282293558120728e-01" purity="9.2250990867614746e-01" nType="0">
          <Node pos="l" depth="2" NCoef="0" IVar="-1" Cut="0.0000000000000000e+00" cType="1" res="1.6398698091506958e-02" rms="2.0731502771377563e-01" purity="9.4995677471160889e-01" nType="-99"/>
          <Node pos="r" depth="2" NCoef="0" IVar="-1" Cut="0.0000000000000000e+00" cType="1" res="-2.2143292881082743e-04" rms="3.3488410711288452e-01" purity="8.5323452949523926e-01" nType="-99"/>
        </Node>
      </Node>
    </BinaryTree>
    <BinaryTree type="DecisionTree" boostWeight="1.0000000000000000e+00" itree="49">
      <Node pos="s" depth="0" NCoef="0" IVar="0" Cut="1.4542198181152344e+00" cType="1" res="-6.5123423933982849e-02" rms="2.8954577445983887e-01" purity="4.9887517094612122e-01" nType="0">
        <Node pos="l" depth="1" NCoef="0" IVar="0" Cut="1.0794808864593506e+00" cType="1" res="-1.8359020352363586e-01" rms="2.4031916260719299e-01" purity="7.0597052574157715e-02" nType="0">
          <Node pos="l" depth="2" NCoef="0" IVar="-1" Cut="0.0000000000000000e+00" cType="1" res="-9.9002271890640259e-03" rms="1.7325319349765778e-01" purity="3.2161202281713486e-02" nType="-99"/>
          <Node pos="r" depth="2" NCoef="0" IVar="-1" Cut="0.0000000000000000e+00" cType="1" res="-4.2919674888253212e-03" rms="3.9452159404754639e-01" purity="2.2178141772747040e-01" nType="-99"/>
        </Node>
        <Node pos="r" depth="1" NCoef="0" IVar="1" Cut="8.9948815107345581e-01" cType="1" res="3.8893595337867737e-02" rms="2.8913083672523499e-01" purity="8.7491482496261597e-01" nType="0">
          <Node pos="l" depth="2" NCoef="0" IVar="-1" Cut="0.0000000000000000e+00" cType="1" res="-2.0651617087423801e-03" rms="3.4520396590232849e-01" purity="7.9429799318313599e-01" nType="-99"/>
          <Node pos="r" depth="2" NCoef="0" IVar="-1" Cut="0.0000000000000000e+00" cType="1" res="1.5609983354806900e-02" rms="2.2467137873172760e-01" purity="9.3949013948440552e-01" nType="-99"/>
        </Node>
      </Node>
    </BinaryTree>
    <BinaryTree type="DecisionTree" boostWeight="1.0000000000000000e+00" itree="50">
      <Node pos="s" depth="0" NCoef="0" IVar="0" Cut="1.6355001926422119e+00" cType="1" res="-6.3586957752704620e-02" rms="2.8717207908630371e-01" purity="5.0166690349578857e-01" nType="0">
        <Node pos="l" depth="1" NCoef="0" IVar="1" Cut="7.7156919240951538e-01" cType="1" res="-1.7628601193428040e-01" rms="2.6139369606971741e-01" purity="9.7612410783767700e-02" nType="0">
          <Node pos="l" depth="2" NCoef="0" IVar="-1" Cut="0.0000000000000000e+00" cType="1" res="-9.4662010669708252e-03" rms="2.1239860355854034e-01" purity="5.1095999777317047e-02" nType="-99"/>
          <Node pos="r" depth="2" NCoef="0" IVar="-1" Cut="0.0000000000000000e+00" cType="1" res="-8.3224975969642401e-04" rms="4.6389082074165344e-01" purity="4.5029476284980774e-01" nType="-99"/>
        </Node>
        <Node pos="r" depth="1" NCoef="0" IVar="29" Cut="8.4680551290512085e-01" cType="1" res="4.8231154680252075e-02" rms="2.6719531416893005e-01" purity="9.0256297588348389e-01" nType="0">
          <Node pos="l" depth="2" NCoef="0" IVar="-1" Cut="0.0000000000000000e+00" cType="1" res="-6.3669849187135696e-03" rms="4.4182828068733215e-01" purity="6.1680638790130615e-01" nType="-99"/>
          <Node pos="r" depth="2" NCoef="0" IVar="-1" Cut="0.0000000000000000e+00" cType="1" res="1.2358907610177994e-02" rms="2.3963062465190887e-01" purity="9.2971205711364746e-01" nType="-99"/>
        </Node>
      </Node>
    </BinaryTree>
    <BinaryTree type="DecisionTree" boostWeight="1.0000000000000000e+00" itree="51">
      <Node pos="s" depth="0" NCoef="0" IVar="0" Cut="1.4856952428817749e+00" cType="1" res="-6.3880316913127899e-02" rms="2.8594747185707092e-01" purity="4.9736109375953674e-01" nType="0">
        <Node pos="l" depth="1" NCoef="0" IVar="0" Cut="1.1554964780807495e+00" cType="1" res="-1.7573238909244537e-01" rms="2.4329905211925507e-01" purity="7.4151709675788879e-02" nType="0">
          <Node pos="l" depth="2" NCoef="0" IVar="-1" Cut="0.0000000000000000e+00" cType="1" res="-9.4778453931212425e-03" rms="1.8562321364879608e-01" purity="3.7340138107538223e-02" nType="-99"/>
          <Node pos="r" depth="2" NCoef="0" IVar="-1" Cut="0.0000000000000000e+00" cType="1" res="-2.9347648378461599e-03" rms="4.1987591981887817e-01" purity="2.7275419235229492e-01" nType="-99"/>
        </Node>
        <Node pos="r" depth="1" NCoef="0" IVar="0" Cut="2.5313212871551514e+00" cType="1" res="3.7932850420475006e-02" rms="2.8382688760757446e-01" purity="8.8258671760559082e-01" nType="0">
          <Node pos="l" depth="2" NCoef="0" IVar="-1" Cut="0.0000000000000000e+00" cType="1" res="-1.7114767106249928e-03" rms="3.7021949887275696e-01" purity="7.7746379375457764e-01" nType="-99"/>
          <Node pos="r" depth="2" NCoef="0" IVar="-1" Cut="0.0000000000000000e+00" cType="1" res="1.8767893314361572e-02" rms="1.8170377612113953e-01" purity="9.6362960338592529e-01" nType="-99"/>
        </Node>
      </Node>
    </BinaryTree>
    <BinaryTree type="DecisionTree" boostWeight="1.0000000000000000e+00" itree="52">
      <Node pos="s" depth="0" NCoef="0" IVar="0" Cut="2.0635397434234619e+00" cType="1" res="-6.3402555882930756e-02" rms="2.8375685214996338e-01" purity="4.9951812624931335e-01" nType="0">
        <Node pos="l" depth="1" NCoef="0" IVar="1" Cut="8.5406094789505005e-01" cType="1" res="-1.5148890018463135e-01" rms="2.9192751646041870e-01" purity="1.8371343612670898e-01" nType="0">
          <Node pos="l" depth="2" NCoef="0" IVar="-1" Cut="0.0000000000000000e+00" cType="1" res="-9.4531411305069923e-03" rms="2.4713511765003204e-01" purity="8.5852354764938354e-02" nType="-99"/>
          <Node pos="r" depth="2" NCoef="0" IVar="-1" Cut="0.0000000000000000e+00" cType="1" res="5.5744531564414501e-03" rms="4.0069141983985901e-01" purity="7.2184598445892334e-01" nType="-99"/>
        </Node>
        <Node pos="r" depth="1" NCoef="0" IVar="15" Cut="-1.8571429252624512e+00" cType="1" res="6.1181452125310898e-02" rms="2.1764643490314484e-01" purity="9.4617319107055664e-01" nType="0">
          <Node pos="l" depth="2" NCoef="0" IVar="-1" Cut="0.0000000000000000e+00" cType="1" res="1.8701072782278061e-02" rms="1.7903833091259003e-01" purity="9.6493518352508545e-01" nType="-99"/>
          <Node pos="r" depth="2" NCoef="0" IVar="-1" Cut="0.0000000000000000e+00" cType="1" res="4.4601554982364178e-03" rms="2.9170820116996765e-01" purity="8.9755010604858398e-01" nType="-99"/>
        </Node>
      </Node>
    </BinaryTree>
    <BinaryTree type="DecisionTree" boostWeight="1.0000000000000000e+00" itree="53">
      <Node pos="s" depth="0" NCoef="0" IVar="0" Cut="1.5956019163131714e+00" cType="1" res="-6.4814805984497070e-02" rms="2.8476977348327637e-01" purity="4.9891898036003113e-01" nType="0">
        <Node pos="l" depth="1" NCoef="0" IVar="1" Cut="6.9361823797225952e-01" cType="1" res="-1.6990521550178528e-01" rms="2.5458338856697083e-01" purity="8.8988214731216431e-02" nType="0">
          <Node pos="l" depth="2" NCoef="0" IVar="-1" Cut="0.0000000000000000e+00" cType="1" res="-9.5026660710573196e-03" rms="1.9727283716201782e-01" purity="4.2720656841993332e-02" nType="-99"/>
          <Node pos="r" depth="2" NCoef="0" IVar="-1" Cut="0.0000000000000000e+00" cType="1" res="-2.0705612841993570e-03" rms="4.4372409582138062e-01" purity="3.6055493354797363e-01" nType="-99"/>
        </Node>
        <Node pos="r" depth="1" NCoef="0" IVar="10" Cut="2.1428570747375488e+00" cType="1" res="3.6986537277698517e-02" rms="2.7532440423965454e-01" purity="8.9601993560791016e-01" nType="0">
          <Node pos="l" depth="2" NCoef="0" IVar="-1" Cut="0.0000000000000000e+00" cType="1" res="1.1410167440772057e-02" rms="2.3707674443721771e-01" purity="9.2935872077941895e-01" nType="-99"/>
          <Node pos="r" depth="2" NCoef="0" IVar="-1" Cut="0.0000000000000000e+00" cType="1" res="-5.8277421630918980e-03" rms="4.0250265598297119e-01" purity="7.2956228256225586e-01" nType="-99"/>
        </Node>
      </Node>
    </BinaryTree>
    <BinaryTree type="DecisionTree" boostWeight="1.0000000000000000e+00" itree="54">
      <Node pos="s" depth="0" NCoef="0" IVar="0" Cut="1.6041345596313477e+00" cType="1" res="-6.2123224139213562e-02" rms="2.8347331285476685e-01" purity="5.0247311592102051e-01" nType="0">
        <Node pos="l" depth="1" NCoef="0" IVar="1" Cut="8.8816511631011963e-01" cType="1" res="-1.6586579382419586e-01" rms="2.5780862569808960e-01" purity="9.2144973576068878e-02" nType="0">
          <Node pos="l" depth="2" NCoef="0" IVar="-1" Cut="0.0000000000000000e+00" cType="1" res="-8.9752301573753357e-03" rms="2.2626554965972900e-01" purity="5.9336815029382706e-02" nType="-99"/>
          <Node pos="r" depth="2" NCoef="0" IVar="-1" Cut="0.0000000000000000e+00" cType="1" res="9.6403772477060556e-04" rms="4.7794127464294434e-01" purity="5.1777929067611694e-01" nType="-99"/>
        </Node>
        <Node pos="r" depth="1" NCoef="0" IVar="1" Cut="6.7002755403518677e-01" cType="1" res="3.8197353482246399e-02" rms="2.7077478170394897e-01" purity="8.9926642179489136e-01" nType="0">
          <Node pos="l" depth="2" NCoef="0" IVar="-1" Cut="0.0000000000000000e+00" cType="1" res="-3.4948165994137526e-03" rms="3.4507906436920166e-01" purity="8.0792576074600220e-01" nType="-99"/>
          <Node pos="r" depth="2" NCoef="0" IVar="-1" Cut="0.0000000000000000e+00" cType="1" res="1.2872937135398388e-02" rms="2.2910739481449127e-01" purity="9.3604004383087158e-01" nType="-99"/>
        </Node>
      </Node>
    </BinaryTree>
    <BinaryTree type="DecisionTree" boostWeight="1.0000000000000000e+00" itree="55">
      <Node pos="s" depth="0" NCoef="0" IVar="0" Cut="2.0163266658782959e+00" cType="1" res="-6.1285994946956635e-02" rms="2.8471216559410095e-01" purity="5.0187098979949951e-01" nType="0">
        <Node pos="l" depth="1" NCoef="0" IVar="1" Cut="6.6793423891067505e-01" cType="1" res="-1.4398221671581268e-01" rms="2.9371312260627747e-01" purity="1.7554269731044769e-01" nType="0">
          <Node pos="l" depth="2" NCoef="0" IVar="-1" Cut="0.0000000000000000e+00" cType="1" res="-9.6165351569652557e-03" rms="2.2677487134933472e-01" purity="6.5078586339950562e-02" nType="-99"/>
          <Node pos="r" depth="2" NCoef="0" IVar="-1" Cut="0.0000000000000000e+00" cType="1" res="6.1723479302600026e-04" rms="4.1442629694938660e-01" purity="5.4354429244995117e-01" nType="-99"/>
        </Node>
        <Node pos="r" depth="1" NCoef="0" IVar="21" Cut="2.8355102539062500e+00" cType="1" res="4.9631997942924500e-02" rms="2.2935241460800171e-01" purity="9.3956547975540161e-01" nType="0">
          <Node pos="l" depth="2" NCoef="0" IVar="-1" Cut="0.0000000000000000e+00" cType="1" res="-3.9698407636024058e-04" rms="3.1297343969345093e-01" purity="8.7799119949340820e-01" nType="-99"/>
          <Node pos="r" depth="2" NCoef="0" IVar="-1" Cut="0.0000000000000000e+00" cType="1" res="1.6220841556787491e-02" rms="1.9677758216857910e-01" purity="9.5707666873931885e-01" nType="-99"/>
        </Node>
      </Node>
    </BinaryTree>
    <BinaryTree type="DecisionTree" boostWeight="1.0000000000000000e+00" itree="56">
      <Node pos="s" depth="0" NCoef="0" IVar="0" Cut="1.4542497396469116e+00" cType="1" res="-6.1667662113904953e-02" rms="2.8067195415496826e-01" purity="4.9821779131889343e-01" nType="0">
        <Node pos="l" depth="1" NCoef="0" IVar="1" Cut="7.0249593257904053e-01" cType="1" res="-1.6336400806903839e-01" rms="2.3686772584915161e-01" purity="6.9568075239658356e-02" nType="0">
          <Node pos="l" depth="2" NCoef="0" IVar="-1" Cut="0.0000000000000000e+00" cType="1" res="-9.2540932819247246e-03" rms="1.8759761750698090e-01" purity="3.7529494613409042e-02" nType="-99"/>
          <Node pos="r" depth="2" NCoef="0" IVar="-1" Cut="0.0000000000000000e+00" cType="1" res="-1.9792355597019196e-03" rms="4.4409853219985962e-01" purity="3.1193730235099792e-01" nType="-99"/>
        </Node>
        <Node pos="r" depth="1" NCoef="0" IVar="10" Cut="2.1428570747375488e+00" cType="1" res="2.7717802673578262e-02" rms="2.8569716215133667e-01" purity="8.7497711181640625e-01" nType="0">
          <Node pos="l" depth="2" NCoef="0" IVar="-1" Cut="0.0000000000000000e+00" cType="1" res="9.4603402540087700e-03" rms="2.4907247722148895e-01" purity="9.1486769914627075e-01" nType="-99"/>
          <Node pos="r" depth="2" NCoef="0" IVar="-1" Cut="0.0000000000000000e+00" cType="1" res="-6.7544709891080856e-03" rms="4.0156829357147217e-01" purity="6.8490558862686157e-01" nType="-99"/>
        </Node>
      </Node>
    </BinaryTree>
    <BinaryTree type="DecisionTree" boostWeight="1.0000000000000000e+00" itree="57">
      <Node pos="s" depth="0" NCoef="0" IVar="0" Cut="2.0635681152343750e+00" cType="1" res="-6.1835106462240219e-02" rms="2.7995550632476807e-01" purity="4.9768969416618347e-01" nType="0">
        <Node pos="l" depth="1" NCoef="0" IVar="1" Cut="1.0207784175872803e+00" cType="1" res="-1.4008706808090210e-01" rms="2.8986999392509460e-01" purity="1.8412286043167114e-01" nType="0">
          <Node pos="l" depth="2" NCoef="0" IVar="-1" Cut="0.0000000000000000e+00" cType="1" res="-8.6696371436119080e-03" rms="2.6529160141944885e-01" purity="1.0866966843605042e-01" nType="-99"/>
          <Node pos="r" depth="2" NCoef="0" IVar="-1" Cut="0.0000000000000000e+00" cType="1" res="8.5915168747305870e-03" rms="3.6626198887825012e-01" purity="7.9454296827316284e-01" nType="-99"/>
        </Node>
        <Node pos="r" depth="1" NCoef="0" IVar="0" Cut="2.5588953495025635e+00" cType="1" res="4.9551766365766525e-02" rms="2.2183340787887573e-01" purity="9.4403290748596191e-01" nType="0">
          <Node pos="l" depth="2" NCoef="0" IVar="-1" Cut="0.0000000000000000e+00" cType="1" res="2.8253614436835051e-03" rms="2.8582301735877991e-01" purity="9.0156239271163940e-01" nType="-99"/>
          <Node pos="r" depth="2" NCoef="0" IVar="-1" Cut="0.0000000000000000e+00" cType="1" res="1.6862191259860992e-02" rms="1.8528608977794647e-01" purity="9.6243506669998169e-01" nType="-99"/>
        </Node>
      </Node>
    </BinaryTree>
    <BinaryTree type="DecisionTree" boostWeight="1.0000000000000000e+00" itree="58">
      <Node pos="s" depth="0" NCoef="0" IVar="0" Cut="2.0635397434234619e+00" cType="1" res="-6.2908321619033813e-02" rms="2.7997457981109619e-01" purity="4.9469670653343201e-01" nType="0">
        <Node pos="l" depth="1" NCoef="0" IVar="1" Cut="1.0266623497009277e+00" cType="1" res="-1.3970752060413361e-01" rms="2.9008576273918152e-01" purity="1.8075181543827057e-01" nType="0">
          <Node pos="l" depth="2" NCoef="0" IVar="-1" Cut="0.0000000000000000e+00" cType="1" res="-8.6301155388355255e-03" rms="2.6609775424003601e-01" purity="1.0696358233690262e-01" nType="-99"/>
          <Node pos="r" depth="2" NCoef="0" IVar="-1" Cut="0.0000000000000000e+00" cType="1" res="8.0950791016221046e-03" rms="3.7153354287147522e-01" purity="7.9748374223709106e-01" nType="-99"/>
        </Node>
        <Node pos="r" depth="1" NCoef="0" IVar="19" Cut="2.2393796443939209e+00" cType="1" res="4.6920448541641235e-02" rms="2.2281320393085480e-01" purity="9.4366204738616943e-01" nType="0">
          <Node pos="l" depth="2" NCoef="0" IVar="-1" Cut="0.0000000000000000e+00" cType="1" res="-4.3544066138565540e-03" rms="3.3014222979545593e-01" purity="8.6655211448669434e-01" nType="-99"/>
          <Node pos="r" depth="2" NCoef="0" IVar="-1" Cut="0.0000000000000000e+00" cType="1" res="1.4658343046903610e-02" rms="2.0073208212852478e-01" purity="9.5478886365890503e-01" nType="-99"/>
        </Node>
      </Node>
    </BinaryTree>
    <BinaryTree type="DecisionTree" boostWeight="1.0000000000000000e+00" itree="59">
      <Node pos="s" depth="0" NCoef="0" IVar="0" Cut="1.8177926540374756e+00" cType="1" res="-5.9857826679944992e-02" rms="2.7612081170082092e-01" purity="4.9955427646636963e-01" nType="0">
        <Node pos="l" depth="1" NCoef="0" IVar="1" Cut="9.8978000879287720e-01" cType="1" res="-1.4594395458698273e-01" rms="2.7453613281250000e-01" purity="1.2917777895927429e-01" nType="0">
          <Node pos="l" depth="2" NCoef="0" IVar="-1" Cut="0.0000000000000000e+00" cType="1" res="-8.4599917754530907e-03" rms="2.4915921688079834e-01" purity="8.3327449858188629e-02" nType="-99"/>
          <Node pos="r" depth="2" NCoef="0" IVar="-1" Cut="0.0000000000000000e+00" cType="1" res="6.5730172209441662e-03" rms="4.2640221118927002e-01" purity="7.0811116695404053e-01" nType="-99"/>
        </Node>
